412 300
e -0.08044525 -0.059064724 -0.07205978 0.024835102 0.17950328 -0.022995772 -0.27127782 -0.14185782 0.122483045 0.14699568 0.12746328 0.017351927 -0.00012930999 0.11562081 -0.09647247 0.13580874 0.09095649 0.05318506 -0.075439535 -0.011776082 -0.10652946 0.03825239 -0.039766196 0.028227169 -0.014404399 -0.12801105 0.20706892 0.06498545 -0.057445757 -0.04949319 -0.032228578 -0.059712365 -0.19699018 0.026507562 0.13533135 -0.07762901 -0.11247519 0.10569659 -0.10345157 0.09977502 -0.014914216 0.0702323 0.062095534 0.037405506 -0.23715831 -0.0895676 0.10243031 -0.16488214 -0.13158566 0.0023210398 -0.2792105 -0.13366725 -0.20829 -0.050972342 0.00015541728 0.017895045 -0.06313811 0.05500765 0.049400013 0.25701952 0.11620989 -0.010568684 -0.023147041 -0.089473106 -0.06093433 0.20588742 0.041444518 0.09419927 -0.12420532 0.079449914 -0.05285819 -0.07467197 0.035828497 -0.13313317 -0.0016033478 -0.12096408 0.028282452 -0.021730205 0.09143514 0.043321982 0.014959615 -0.114126146 0.07452306 -0.050801247 0.19148327 -0.12977451 -0.09912527 0.0025388137 0.025023045 0.21576451 0.037199438 -0.07990812 0.039966792 0.072219476 0.052413784 -0.094289266 -0.0050176675 0.068354 -0.03233536 -0.062721744 0.16952263 -0.012625788 -0.046168394 0.11007968 0.11493093 -0.082308576 -0.06493017 0.098051526 -0.053319786 0.06034843 0.09109657 -0.28146356 0.053623106 0.01611214 0.0008912079 -0.2752535 0.0020380397 0.111758314 0.047774877 -0.029857656 0.18072578 -0.07532593 0.0859386 0.20572488 -0.19104576 -0.23640452 -0.09570262 -0.16374385 0.14795847 0.036391687 0.008136522 -0.11391908 0.0827185 -0.17810369 0.16174294 -0.05644057 -0.1536324 0.19807994 -0.008256186 0.07966878 0.003192808 -0.0739768 -0.1261679 0.017364774 0.08519913 -0.18670857 -0.13144515 0.075336225 0.11613332 0.028615788 0.14416282 0.12896773 -0.0042100246 0.21968079 0.07367694 -0.18292512 0.03436481 0.19830686 0.033533625 0.25163686 -0.10889576 0.122696646 -0.06638172 -0.06210436 0.11838722 0.04003575 0.08170593 0.0908731 -0.05491928 -0.013169274 0.008037139 0.15266703 0.04158719 -0.08477791 -0.03024192 0.022896733 -0.058570754 0.00281649 0.05618889 -0.06073605 0.04818755 0.07177991 0.007258664 -0.03046525 0.104925044 0.26027903 0.038106114 -0.101908684 -0.054968562 0.13397852 0.022186235 0.04075181 -0.03770329 -0.09393291 -0.014463452 -0.027879944 0.043932546 0.08929726 0.18371645 -0.19158638 0.06754298 0.06825658 0.30165884 0.011839665 0.14405029 0.045259565 0.049364984 -0.059393704 -0.0030292997 0.08566375 0.0041547692 0.0768618 0.15592134 0.016350618 0.029305665 0.08270198 0.090454884 -0.08231291 0.023536606 0.16812173 0.06453612 -0.04139316 0.08034986 -0.020361997 0.18960783 -0.033455774 -0.04563553 0.06400652 0.06171285 -0.17543478 -0.10615197 0.0016502823 0.1096334 -0.03154653 -0.06477375 -0.08908031 -0.15414843 0.09296354 0.23578152 0.0986827 0.168454 -0.038447376 -0.13226558 0.043372937 -0.32802266 -0.034499593 -0.033472225 -0.09680702 0.002293006 -0.011540995 -0.014520591 0.047613557 -0.15083344 -0.24909957 0.016223827 -0.092990346 -0.07053288 -0.2785879 0.027811328 0.009403935 -0.033384062 0.094832875 -0.032374684 0.09425152 -0.08691979 0.10841366 0.06312792 0.15391338 0.0020395159 -0.04567572 0.10632263 0.12710781 0.11688983 -0.18101777 0.13696282 -0.037143808 -0.06321003 0.10997588 0.041516468 0.0363077 0.25108653 -0.036392026 -0.09131521 -0.13518295 -0.18366843 0.15983972 -0.0739212 0.0014605635 0.055017017 0.16345772 -0.15803139 -0.11439426 0.03943506 -0.041341 -0.017494306 0.08512122 0.015520122 -0.005910778 -0.01240268 0.07809556
a -0.036697306 0.02915215 0.042711407 0.019036736 0.21088535 0.03599933 -0.39812157 -0.08757464 0.37610185 0.22537145 0.087034695 0.11066618 -0.07030851 0.15968427 -0.10387847 0.16151391 0.07055051 0.08874583 -0.006180569 -0.040658556 -0.13939463 -0.06433422 -0.076212525 -0.0783206 0.1447494 -0.08632865 0.12067708 0.052574113 -0.0038449168 0.009875883 0.043362115 -0.173061 0.10286916 0.02554668 0.046601463 0.006805465 -0.1909594 0.07849102 -0.078146644 0.004021425 -0.10358703 0.014644233 0.04275228 0.20541593 -0.16162965 0.018959362 0.11139343 -0.12057131 -0.06399309 -0.017050656 -0.26595932 -0.08564519 -0.19681491 -0.033641785 -0.16463117 0.029791879 -0.13131754 0.08747402 -0.07728987 0.25625318 0.13108958 -0.043009993 -0.07031985 -0.11925992 -0.1167593 0.29556283 0.022931688 0.06870754 -0.19016412 0.18593372 0.098696955 -0.08978258 0.08880039 -0.05661082 -0.017404873 0.020813944 -0.049458995 -0.07127271 0.06770839 0.038625713 -0.058969766 -0.009694353 0.095226705 -0.02342227 0.19858432 -0.08722734 -0.099005274 0.0041583283 0.094152786 0.19003521 0.036028866 -0.032423813 0.02326958 0.11335339 0.11404971 -0.15386589 -0.126306 0.060276654 0.090751946 0.042851005 0.08863679 0.02574814 0.10498456 0.032121196 0.1196798 -0.11926702 -0.025691189 0.1416818 -0.070325755 0.04597471 0.103321135 -0.11767765 -0.013612107 -0.0019104683 0.038116924 -0.124601044 0.07296604 0.18501946 0.0963072 -0.06976438 0.1282851 -0.14497538 0.1038676 0.29736885 -0.09496269 -0.18026467 -0.06135671 -0.07739719 0.096931025 0.09220417 -0.039552394 -0.07001772 0.06914687 -0.097083874 0.1374932 -0.19099852 -0.10884846 0.105837874 -0.041897155 0.1255812 -0.025701439 0.010096607 -0.1910625 0.08831521 0.097298294 -0.016918557 -0.093073115 0.11431756 0.09881067 0.090751745 0.087196395 0.034951918 -0.039521467 0.27789527 0.08447434 -0.14738092 -0.025196033 0.17871046 -0.010600734 0.15901732 -0.06837541 0.098223664 -0.03151335 0.002366647 0.05219347 0.05222558 0.08395527 0.21747245 -0.0841466 0.009060301 0.05190159 0.14352317 0.004399125 -0.06516283 -0.0027844934 0.0034972855 -0.05537713 -0.07817351 0.15627393 -0.0030706227 0.01888488 0.041617837 -0.03586533 0.044285737 0.016417481 0.045816537 -0.040935367 -0.10696715 -0.01950942 0.016593056 -0.0016336485 -0.030242095 0.011839981 -0.08209475 0.0010210731 -0.011454506 -0.04872911 0.041800514 0.099516295 -0.0056329058 0.05363295 0.042306803 0.15230414 -0.0011403892 0.11370891 0.069876336 0.10056059 -0.0072920565 -0.0037622466 -0.029556062 0.015796734 0.14782965 0.15349188 -0.071851276 0.07828132 0.0605668 0.0712826 -0.055055805 -0.057408232 0.10135752 0.00784099 -0.06373709 0.0067897686 0.04004257 0.14921811 -0.02237237 -0.06703055 -0.000660321 0.0589835 -0.117812596 -0.009489925 0.05582048 0.079784185 0.011606256 0.020908585 -0.0666683 -0.13491173 0.11878948 0.17485034 0.06659237 0.11806702 0.0026516854 -0.087380424 0.034734163 -0.23936175 0.058097873 -0.15832213 -0.1568008 -0.005421986 -0.04829302 0.06359063 0.062262833 -0.17250495 -0.10499419 0.02799485 0.02464231 -0.049546327 -0.23873137 -0.040236764 0.034302037 -0.040302314 0.12208407 -0.08053831 0.10370085 -0.004006004 0.08784529 0.13400504 0.046371385 -0.09944678 0.0158 0.037444357 0.17744589 0.04650239 -0.17553103 0.07783779 0.04703609 0.006399905 -0.01803916 0.15034305 -0.07326646 0.19184858 -0.07759514 -0.08547859 -0.18214352 -0.18854669 0.16049963 -0.035002876 0.08752063 -0.012201093 0.06451238 -0.037263066 -0.04473255 0.05287905 0.08789775 -0.021330303 0.026897231 -0.0229175 -0.035549615 0.0031924858 -0.0020194985
i -0.074971795 -0.025640018 -0.10094566 0.064713426 0.23024073 -0.023534363 -0.40513116 -0.13382216 0.20433396 0.14981988 0.09789814 0.04322015 -0.074410185 0.13610621 -0.13773175 0.14915532 0.08743513 0.060751677 -0.08597255 -0.03569141 -0.16508105 0.060030375 0.036211126 0.034158874 -0.021653075 -0.14293163 0.18318686 0.14056914 0.0028040947 -0.044514097 -0.010026463 -0.14502946 -0.21976691 0.035373934 0.10596313 -0.0673835 -0.15949382 0.10679151 -0.13586794 0.15398729 -0.10805193 0.10158888 0.12874183 0.060575984 -0.28903717 -0.07921119 0.06865958 -0.12590413 -0.09551576 -0.004431781 -0.28755113 -0.078921914 -0.1919634 0.029939376 -0.012142597 0.044167098 -0.057643898 0.120460555 0.0598521 0.32111597 0.18840264 -0.038857765 -0.009090222 -0.121591784 -0.043479662 0.17860061 0.04652463 0.03443467 -0.09691398 0.025560249 -0.14596282 -0.06371806 0.0683709 -0.14305499 0.0009156919 -0.095912755 -0.0056180637 -0.08726012 0.10087481 0.041079096 0.053268738 -0.1370406 0.013781156 -0.01767995 0.18058345 -0.056451216 -0.13029231 0.02443795 0.076701485 0.14688694 -0.041341003 -0.067589134 0.011305229 0.11860531 0.09988553 -0.049751915 0.04341628 0.058045965 -0.04958739 0.023935137 0.09108496 0.03886518 -0.022540689 0.07494124 0.12017566 -0.10979093 -0.12766288 0.11142681 -0.07545535 0.04775756 0.052404657 -0.29308805 0.024308842 0.02786174 0.051971905 -0.26360506 0.081283934 0.1263511 0.008290526 -0.05207817 0.17203374 -0.039253913 0.08091453 0.20109914 -0.24997397 -0.17793964 -0.08214607 -0.20214725 0.20129329 0.07126948 0.0744 -0.09222933 0.10602411 -0.2206617 0.19261067 -0.08631854 -0.12029457 0.3147931 -0.08135154 0.115482874 0.02347419 -0.12485028 -0.20450331 -0.019720579 0.12372312 -0.26578334 -0.15564987 0.19398119 0.17314118 -0.013048577 0.108938456 0.11937846 -0.022672867 0.2381173 0.12704399 -0.20556681 0.034328144 0.20599571 0.075243324 0.25921568 -0.1892853 0.1785317 -0.039213005 -0.087197185 0.10911309 0.015278317 0.043667592 0.12256817 0.008843149 -0.023948427 0.058707118 0.13792782 0.017085189 -0.14620142 -0.071617216 0.089685895 -0.06694454 0.018218646 0.046415687 -0.13326204 -0.024514513 0.034236964 -0.02545429 -0.03531864 0.10597838 0.24919775 0.013404444 -0.07988218 -0.011634217 0.13000105 0.027551062 0.08914354 0.009887166 -0.11242979 0.03857557 -0.047440425 -0.036269225 0.07808249 0.20897928 -0.17583296 0.0068875216 0.011987433 0.262435 0.026521394 0.11783938 0.07579482 0.06398737 -0.021835715 0.041124415 0.08191216 0.043431077 0.09820544 0.10627704 -0.045948908 0.023163797 0.032324117 0.08650016 -0.14382519 0.009942614 0.120417595 0.06580411 -0.03930782 0.022516936 -0.030804772 0.13431281 0.004056101 -0.0016163087 0.026208403 0.08431748 -0.16325386 -0.051621545 0.025517784 0.07684886 -0.048244875 -0.051018715 -0.056006778 -0.0974975 0.016743293 0.18932326 0.062315613 0.0970577 -0.040317047 -0.14528273 0.007731128 -0.26929227 0.002685879 -0.01462603 -0.06483704 0.07539518 -0.031310737 -0.080024116 0.04399964 -0.16709284 -0.17432176 0.043961998 -0.09901596 -0.051005784 -0.2727924 0.0148070995 0.047630202 -0.07301457 0.07574188 -0.012200622 0.029673243 -0.07512524 0.11245618 0.028985135 0.12775758 -0.017962886 0.02584475 0.17027661 0.124165416 0.022990726 -0.20364626 0.12467719 0.026416518 -0.07933698 0.047311824 0.03979973 0.08888412 0.28353179 0.076461166 -0.06950984 -0.15181544 -0.23631588 0.22243237 -0.087724455 0.027386986 -0.057002507 0.13004467 -0.17546564 -0.14146337 0.03408547 0.0262485 0.0011388191 0.107888065 0.045766953 -0.026603907 -0.050268132 0.120390385
s -0.05442297 -0.07436187 -0.019357655 -0.012722192 0.11438514 0.00564912 -0.121638075 -0.12665717 0.10383451 0.13864957 0.01450118 0.12335835 -0.083367445 0.06308143 -0.0036533512 0.06645344 0.04685997 0.12346317 0.010789923 -0.02344089 -0.0010349415 0.044860367 -0.04585986 -0.11523464 0.047154695 -0.10751721 0.09678078 -0.0011751927 0.001286928 -0.09882021 -0.075975664 -0.027358377 -0.04249061 -0.01818291 0.03790158 -0.05930271 -0.07544232 0.1264372 -0.08991024 0.11760144 -0.106291436 0.067657426 0.0809349 0.027328692 -0.170716 -0.012622017 0.10012621 -0.120087415 -0.07107935 0.02288155 -0.16791274 -0.11728988 -0.1541034 -0.004771686 -0.0333847 -0.026700929 -0.17579363 -0.038361017 -0.018443452 0.21553488 0.085009955 -0.048800383 -0.0056262277 -0.050095852 -0.09547278 0.17981142 -0.029042097 0.039276935 -0.16237983 0.113965504 0.031766772 -0.08751051 0.0009490372 -0.124021254 -0.004284081 -0.058936235 0.016871002 -0.010154249 0.13316955 -0.0017638793 -0.044630058 -0.012783161 0.051099665 -0.023055058 0.15679502 -0.11773576 -0.031659104 0.022381427 -0.0434128 0.1397198 0.037912443 -0.04033926 0.031771112 0.025143469 0.04980527 -0.071579 -0.08928654 0.09953825 -0.06918375 -0.072414 0.029441072 -0.056866534 -0.03182708 0.11134279 0.012241393 0.033388957 0.046175115 0.028490638 -0.0827208 0.023283837 0.032015935 -0.150471 0.06183124 -0.028606297 -0.027475478 -0.16892585 -0.066529 0.026580531 0.024958981 0.054890446 0.10460606 -0.034559492 0.118531294 0.13375944 -0.10161935 -0.121188246 -0.04004309 -0.11548049 0.11628662 -0.02138422 0.082834944 -0.07914332 0.055585027 -0.1216184 0.09827395 -0.12520996 -0.18851605 0.19442925 -0.059221324 -0.054530025 0.040899575 -0.17121765 -0.14628236 -0.00047045242 0.039682027 -0.13011913 -0.121152535 0.054619614 0.04488596 0.05402436 0.1457319 -0.0023370918 0.042583726 0.109059915 0.13457343 -0.21032177 -0.07158235 0.23396489 0.044255186 0.25608134 -0.109476656 0.08514648 -0.14552954 -0.06454524 0.13263988 0.10617136 0.14855154 0.012850047 -0.022248752 0.0022742953 0.05717095 0.11230165 -0.028551491 -0.12710938 -0.004630318 0.10639796 -0.07721623 0.06470944 0.07722734 -0.036088184 0.038625665 0.13899508 0.05246327 -0.03365904 0.05453624 0.23621008 0.01155272 -0.13598621 -0.11748944 0.15857328 -0.0067944084 0.07391727 -0.03356822 -0.011224444 0.0004889439 0.04008908 0.11604427 0.03227716 0.15555167 -0.20365275 -0.011514031 0.0633515 0.17683147 0.0018431555 0.19938827 0.0108392425 0.09292323 0.0022429274 0.054241072 -0.005345798 -0.004565319 0.08868546 0.19614805 0.019163372 0.05975126 0.08354877 0.045021977 -0.14879881 -0.01648023 0.09072924 0.01847345 -0.059653316 0.06784368 0.012438099 0.029920187 -0.054244697 -0.009803313 0.15753937 -0.002494249 -0.12404156 -0.1087882 -0.034505133 0.055070464 -0.059390534 -0.08816681 -0.013877164 -0.0786769 0.15793681 0.24678469 0.14914115 0.18357977 -0.060913898 -0.1243015 0.05521279 -0.24413438 -0.04574226 -0.041953694 -0.043846384 0.08908741 -0.109843835 0.062634885 -0.11533137 -0.0893487 -0.34232914 -0.038938943 -0.012774655 -0.09172413 -0.22045895 0.000856226 0.051379867 -0.01982444 0.17608975 0.0016278235 0.079243876 -0.10339158 0.078160144 0.054496247 0.06149207 -0.022296092 -0.09755563 0.070306174 0.10998365 0.08310333 -0.1518373 0.10827696 -0.06655339 -0.17621224 0.07636237 0.15825447 -0.012183763 0.19133289 0.00043339375 -0.09034531 -0.2089984 -0.11237171 0.12940812 -0.031314623 -0.026016552 0.025100885 0.07558161 -0.06382548 -0.14547595 -0.011954631 -0.07211055 0.021893676 -0.0654392 -0.029667977 0.060066868 -0.029376924 0.036414906
r 0.025055576 -0.08682855 -0.09684791 -0.003828694 0.18479933 -0.018920388 -0.26788107 -0.16874489 0.20772564 0.07723225 0.0056608515 0.07151165 -0.09295852 0.034518227 -0.038522553 0.10537523 -0.020064784 0.071584396 0.042697106 -0.10189345 -0.06126254 0.064124756 -0.10280955 -0.103014015 0.008741179 -0.19160761 0.082889445 0.060055487 0.028777707 -0.071139954 -0.060708027 -0.045482468 -0.21957703 -0.023376703 0.13908039 -0.061178047 -0.114576444 0.1045873 -0.17552808 0.17354259 -0.09444414 0.10534761 0.21155415 0.034944545 -0.2646005 -0.01803657 0.093006074 -0.09600941 -0.14851311 0.07628943 -0.22129416 -0.13311574 -0.20222788 -0.010541944 -0.07151456 -0.025404206 -0.15054916 -0.0076514375 0.0489017 0.28413594 0.16087352 -0.15807757 -0.0029051495 -0.17342494 -0.023292292 0.16461307 0.029803323 0.103110485 -0.22348978 0.11233828 -0.10569898 -0.12029621 -0.06379322 -0.15590884 0.015844861 -0.0029029315 -0.026838224 -0.13494995 0.11971212 -0.021397443 0.01732561 -0.16318275 0.06926412 -0.027747486 0.19315486 -0.018350938 -0.066241555 0.034940645 -0.042646114 0.11798032 -0.0628152 -0.027519787 -0.019217368 0.013305176 0.06334761 -0.013784105 0.020923238 0.022139678 -0.075720444 0.019422872 0.009016037 0.0076527786 -0.090402916 0.084137045 0.030222384 0.024987316 -0.012710303 0.0115939295 -0.11668124 -0.039432682 -0.025343928 -0.22410657 0.083543226 -0.0023467827 0.06263609 -0.113605775 -0.025745269 0.06720765 -0.090659924 0.0010795033 0.04174286 0.086135656 0.051258486 0.04609273 -0.12673764 -0.12577155 0.042565916 -0.15507412 0.20070897 0.038149174 0.11017248 -0.082617 0.10167917 -0.14494763 0.15875918 -0.112686545 -0.12070491 0.23828553 -0.057717532 0.019709872 0.033979762 -0.19343014 -0.1427689 -0.0507445 0.07141452 -0.2298258 -0.10860862 0.1291455 0.1384711 0.060759827 0.06602397 0.007049034 -0.039193247 0.095438555 0.14656077 -0.15525341 0.013557485 0.22600155 0.018648965 0.24940567 -0.23441657 0.0697115 -0.072996296 -0.09429468 0.1314445 0.0790189 0.11589003 0.0058929445 0.00012619077 0.038065195 0.07780685 0.057910193 0.050698277 -0.16867165 -0.0008707216 0.07363021 -0.04244942 0.05553777 0.045207117 -0.09066174 0.026075415 0.097641304 0.0425716 -0.04591132 0.09527616 0.19057342 -0.049820755 -0.08231068 0.0122061595 0.13180372 -0.028383585 0.04965361 0.02009269 -0.09679787 -0.020276831 0.019071337 0.05273132 0.03437738 0.22505362 -0.2011682 -0.031946667 0.04399278 0.21166202 -0.0008317687 0.15567751 0.12005617 0.04398223 0.011513235 0.06250445 0.017233178 -0.040546462 0.1296895 0.13094757 0.020486549 0.039698128 0.1019528 0.053044483 -0.13137896 -0.027177209 0.07524861 0.15926298 0.00744771 0.053394884 0.01651914 0.053961195 -0.02481999 0.026392384 0.15002093 0.04451001 -0.11563085 -0.07581622 0.012416189 0.098939165 -0.08061334 -0.06009307 -0.04761914 -0.082762696 0.14004119 0.18809935 0.002299366 0.12416149 -0.07313211 -0.124153554 0.057397716 -0.28360093 0.0061747395 0.056541353 0.0418399 0.14190476 -0.066265754 -0.106484 -0.05851066 -0.06705154 -0.2795977 -0.061421342 -0.019864403 -0.029563647 -0.14479686 -0.014688096 0.016089542 -0.019636229 0.06903678 0.050965734 -0.004498988 -0.1436262 0.08572919 -0.019389847 0.08204852 -0.06288517 -0.10502359 0.17000368 0.10862451 0.03348965 -0.11152475 0.08747399 -0.053732146 -0.06526101 0.039437816 0.07457416 0.028113205 0.16445468 -0.033710055 -0.10352459 -0.20579305 -0.12339513 0.10931509 -0.017859029 0.027745405 -0.09241218 0.02307648 -0.12220625 -0.13981292 -0.02844106 -0.023680108 0.0013770312 0.023073561 -0.013318347 -0.030977216 0.034828518 0.07438849
t -0.024313806 -0.006149136 -0.046788868 0.08806773 0.16962014 0.055416703 -0.22809166 -0.10016637 0.26557153 0.25223836 0.09113582 0.0890145 -0.08291457 0.13696362 0.0154117895 0.08847385 0.07482389 0.14179926 -0.03244013 -0.08943447 -0.09186809 0.044859335 -0.11966593 -0.064584225 0.04146206 -0.06067581 0.057448342 0.00801323 -0.050980594 -0.087619685 0.014951495 -0.0058750063 -0.07255804 0.043749683 0.017308425 -0.021691453 -0.03943322 0.04277975 -0.050700877 0.04757731 -0.06988024 0.06652092 -0.020578234 0.04306133 -0.1358072 0.021489404 0.079300255 -0.097077064 -0.14182754 0.054221027 -0.1962914 0.008139529 -0.15977602 0.008088467 -0.0949316 -0.10755765 -0.046528094 0.005637901 -0.058720842 0.14704806 0.09671426 -0.007040307 -0.0059643514 -0.08521775 -0.105078794 0.21435048 -0.08190551 0.09430498 -0.1610999 0.016638322 -0.023740252 -0.0619792 0.10816745 0.036705036 0.07544752 0.039245043 -0.06735194 -0.11825225 0.084260665 -0.026110852 0.018859036 -0.04101419 0.05477632 -0.05367471 0.17499441 -0.09197368 -0.12313826 0.023160256 0.036307063 0.15764143 -0.009777773 0.02316841 -0.0047216127 0.0046061496 0.07686915 -0.13022779 -0.0927293 0.10201019 -0.047370713 0.058795523 0.08883251 -0.091660924 0.023947308 -0.03351617 0.01563176 0.059362657 -0.03136861 0.033757746 -0.09132692 0.07489787 -0.017836127 -0.10033566 -0.0028461264 0.03634461 0.051548056 -0.11178342 -0.0034813352 0.18013021 0.109580554 0.0058707767 0.13501203 -0.04749053 0.10171063 0.13952124 -0.024036478 -0.07887122 -0.030840721 0.00015800656 0.10646829 0.018963365 -0.0698162 -0.16006804 0.16239242 -0.08415588 0.16353153 -0.1496028 -0.112584725 0.07769861 -0.039760653 0.1502757 0.07453381 -0.106578715 -0.14925954 0.0637188 0.103291504 -0.019781977 -0.054604903 0.01771996 0.16189961 0.09515261 0.019371435 -0.0042386926 0.020475497 0.123950735 0.063686624 -0.1307624 0.053050272 0.12960547 0.025194319 0.20475669 -0.14738499 0.0632258 -0.0054287645 0.00433224 0.0718607 0.0818267 0.13428202 0.17295869 -0.0925648 0.067035064 -0.046902437 0.11817032 0.08262728 -0.11388688 0.073240586 0.084218115 -0.10183132 -0.008563795 0.14882487 -0.03250966 -0.047478534 0.15677059 -0.042648107 -0.10726093 0.06704466 0.15797096 -0.047038116 -0.07649387 -0.056149445 0.29555318 -0.062458076 0.047820337 -0.10356871 -0.055774998 -0.062527776 -0.11799277 0.065918244 0.0054143546 0.2677558 -0.18326576 -0.04807319 0.048698477 0.27919412 -0.06998487 0.032387163 0.027997782 0.10343189 -0.070492454 -0.05374767 0.004319745 -0.025536302 0.20160486 0.229532 -0.037259728 0.106023155 0.109512694 0.11244772 -0.14814031 -0.00044764983 0.08213496 0.10370446 -0.048813704 0.13422185 -0.004735081 0.16205247 -0.14448436 -0.09369914 0.062375598 0.010936872 -0.20775102 -0.15238246 -0.059817165 0.06576959 -0.06713173 0.04156222 -0.052753936 -0.12665576 0.1043053 0.15967113 0.114067376 0.18205678 0.0025820816 -0.09569813 0.16057387 -0.26405087 0.017633477 -0.06188095 -0.20395188 -0.09871324 0.05435545 -0.01953379 0.01149442 -0.13953738 -0.16127357 -0.06793616 -0.0071362965 -0.100876205 -0.20376411 -0.02608033 0.061431717 -0.06692932 0.16519251 -0.14831915 0.0434829 -0.0671271 0.06123853 0.070085466 0.15433298 -0.06300076 -0.050396774 0.10150262 0.109223 0.113876976 -0.17550088 0.14434399 -0.046195734 -0.13548352 -0.023829939 0.11837178 -0.028161325 0.20684308 -0.14906727 -0.07728043 -0.11490531 -0.22942555 0.15430757 -0.10606288 0.04122896 -0.012968666 0.027514402 -0.113476515 -0.090948395 -0.005258223 0.026243305 -0.06267509 0.029840952 -0.0019624603 -0.010508688 0.041020557 0.050621547
n -0.014051888 -0.12367995 -0.10594228 0.06450382 0.2923661 -0.008123915 -0.34747756 -0.044643488 0.30845666 0.20339917 -0.025635673 0.09601093 -0.05267621 0.06578127 -0.12114309 0.2038474 0.06729415 0.106717944 -0.015334211 -0.040907294 -0.081400946 0.10609092 -0.104040086 -0.12283186 0.07260527 -0.11110615 0.08851073 0.049746852 -0.020337522 -0.12120606 0.017027842 -0.12669092 -0.19281456 0.0020746444 0.16676125 -0.042883802 -0.1712516 0.093995705 -0.1514823 0.16159953 -0.09865921 0.08204637 0.18815371 0.08860368 -0.25347194 0.015235717 0.051298004 -0.14509255 -0.1938489 0.08370963 -0.34015727 -0.06129232 -0.2661329 -0.0033618268 -0.050396986 -0.057686403 -0.17529862 -0.0028079958 0.020180564 0.18620668 0.14315625 -0.133362 -0.0015409193 -0.14456907 -0.018477043 0.1902211 -0.04411712 0.026211316 -0.16521424 0.12196383 -0.06255881 -0.118245274 -0.039422903 -0.07222962 0.08668698 0.030994445 0.008761275 -0.15663767 0.122082174 -0.05714459 -0.03016409 -0.12280943 0.01070254 -0.061522868 0.1431273 0.00335087 -0.10308459 0.0887198 -0.029953286 0.17039575 -0.07735451 -0.09067223 -0.057858262 -0.056164637 0.15595676 -0.13594584 0.01299752 0.07959704 -0.1057776 0.00018572516 -0.057520665 0.022641713 -0.12196067 0.041979037 0.06609241 -0.01827293 -0.01591924 -0.040545244 -0.055358768 0.0129239205 0.039184455 -0.25912347 0.1143421 -0.050788328 -0.0022044464 -0.20636609 -0.006570682 0.1518006 -0.095773 -0.0030826973 0.13597192 0.085319266 0.0697768 0.19395235 -0.21123625 -0.18719734 0.018561684 -0.1699954 0.1643966 0.018896243 0.058433563 -0.066845804 0.11598911 -0.21009164 0.0997406 -0.0755125 -0.17866433 0.16935363 -0.06647543 0.062669866 -0.0069384016 -0.23302175 -0.033251643 -0.029141614 0.043593414 -0.2139179 -0.08717081 0.021417512 0.16722062 0.06382926 0.121418804 0.010947175 -0.07191284 0.1702151 0.11361947 -0.2291229 -0.01344894 0.29059958 -0.022097016 0.3517798 -0.26326543 0.13807043 -0.14866059 -0.12940986 0.13057818 0.061747644 0.08027671 0.07238938 -0.068064354 0.04334836 0.065270744 0.08509139 0.091601126 -0.18576755 -0.024485625 0.045296352 -0.103444986 0.052848306 0.021321038 -0.13098773 -0.0031465227 0.072123066 0.027068546 -0.02931392 0.07963251 0.27588814 -0.027835032 -0.049826518 -0.08020238 0.193484 -0.05116212 0.033919834 -0.01342579 -0.10625002 -0.017187333 -0.022053966 0.053016502 0.08717728 0.27254197 -0.14603837 -0.06708491 0.025964702 0.24755341 -0.095739216 0.11147796 0.067080125 0.17383116 0.004421358 0.06564061 0.0786943 -0.058491375 0.102620065 0.16712198 -0.019508118 0.03966145 0.12412714 0.012258598 -0.100468606 -0.014349698 0.06989109 0.08246833 0.0017333808 0.07287479 0.0035915102 0.07742695 -0.04208747 0.047105167 0.06784784 0.13403328 -0.17204088 -0.059271205 -0.049763534 0.047734533 -0.031799864 -0.09389169 -0.077464245 -0.038185388 0.072847314 0.18736976 0.015685236 0.1321801 -0.13162313 -0.17861035 0.032421533 -0.3017986 0.022871247 -0.012120602 -0.1052279 0.14402361 -0.10574809 -0.15564805 0.06598614 -0.12695119 -0.28353542 0.0076816794 0.010443902 -0.05163619 -0.19232231 0.020937508 0.032692682 -0.012295182 0.049620546 -0.012502201 0.039748635 -0.13019495 0.08671011 0.022945005 0.17666881 -0.038569797 -0.06633292 0.16027538 0.11774752 0.11498809 -0.057127163 0.079021595 -0.004272527 -0.0671507 -0.025662571 0.04872001 -0.040108435 0.15196827 0.02117937 -0.077780396 -0.15675342 -0.21128349 0.0377297 -0.07540695 0.016080566 -0.01790208 0.072938405 -0.09897025 -0.09097822 -0.014067611 0.0044061276 0.05965758 -0.021292835 0.02747175 -0.038518075 0.079057574 0.10609719
o -0.060132723 -0.043643612 -0.07789107 0.056776542 0.19620268 0.010192771 -0.36349416 -0.16915677 0.19282989 0.15347147 0.102347925 0.025894368 -0.03860856 0.11055945 -0.07100699 0.1386028 0.08648733 0.10731928 -0.023835821 -0.03323592 -0.1581305 0.020411918 -0.03696822 -0.026888367 0.06741425 -0.09310288 0.12931043 0.07016443 -0.021234863 -0.0584553 -0.06842199 -0.096717395 -0.11879502 0.014780694 0.096661836 -0.063264355 -0.1225055 0.1173843 -0.10878954 0.1439508 -0.09315349 0.08021775 0.07398203 0.0726163 -0.2773558 -0.085237116 0.122783355 -0.15654136 -0.118184306 -0.007509591 -0.29323107 -0.10446761 -0.18495955 0.007826548 -0.09542897 0.013677996 -0.12530635 0.027866868 -0.00015199286 0.3203642 0.10934751 -0.03716813 -0.080105826 -0.15020284 -0.062578104 0.21863744 0.015266859 0.06042202 -0.14856212 0.04866326 0.0064693373 -0.06057453 0.08836471 -0.089681596 -0.0024076353 -0.05302135 -0.033309042 -0.042779148 0.06621865 0.008903095 0.020240823 -0.039273094 0.059626576 -0.03982738 0.13383722 -0.07643413 -0.09129303 -0.019909969 0.07070697 0.18824947 0.022253947 -0.06634426 0.029987875 0.085422225 0.1442872 -0.03654271 -0.07458949 0.0210656 0.020459391 0.03508729 0.08741911 -0.0130205415 0.044549957 0.032784045 0.12958507 -0.03156221 -0.08703758 0.14017077 -0.09377956 0.069577485 0.052070536 -0.19199626 0.038825214 -0.003733153 -0.0019469438 -0.19400279 0.032657158 0.12641108 0.05372353 -0.03913591 0.17411268 -0.08615054 0.13927738 0.22926012 -0.1730107 -0.1541919 -0.04772695 -0.16330631 0.097289935 0.046736397 0.034553964 -0.075886026 0.11193248 -0.17846906 0.13896844 -0.04327624 -0.14611791 0.16700554 -0.05256762 0.07559428 0.014835322 -0.09230934 -0.1064528 0.021438485 0.056878496 -0.18158849 -0.07335477 0.11526525 0.08151047 0.07263006 0.10035513 0.13156225 -0.052260447 0.17834717 0.104566246 -0.17085138 -0.00014155672 0.21551974 0.06614647 0.31143877 -0.12915054 0.13932824 -0.050762378 -0.06679115 0.10679335 0.030218123 0.07325797 0.12615465 -0.07201062 -0.070706815 0.05881725 0.16280825 -0.0881117 -0.15628912 -0.073905565 0.059863318 -0.02917674 0.051485606 0.04879453 -0.07744245 -0.032643277 0.12639754 -0.0047284695 0.012631157 0.07669548 0.22357939 0.017418642 -0.18509169 -0.074620195 0.13645051 0.05051892 0.12696695 -0.0010663684 -0.08623726 0.038958155 0.010104994 0.0024893435 0.05788191 0.23418605 -0.14685547 0.03569883 0.07803193 0.2558769 0.062220532 0.12889504 0.03377143 0.06957963 -0.07022193 0.04220219 0.0898814 0.014489266 0.055568468 0.17222446 -0.029696116 0.09356869 0.082189575 0.036299836 -0.12863927 -0.026361106 0.16003105 0.022150978 -0.053531356 0.026195718 0.011429582 0.16397108 -0.011427696 -0.00135459 0.07196533 0.008310077 -0.22916019 -0.087471746 0.045801856 0.09821632 0.031288713 -0.06033043 -0.09738303 -0.1413872 0.15370017 0.30624852 0.14672989 0.20598213 -0.08221195 -0.15875891 -0.0022570738 -0.30214435 0.010195813 -0.027902545 -0.07797019 0.008164788 -0.05159478 0.037622828 -0.005080573 -0.14846505 -0.27554783 0.005569447 -0.019276269 -0.06755861 -0.30195853 0.04093181 0.02372671 -0.0904096 0.0930528 -0.04487867 0.070754856 -0.08435859 0.07915422 0.09255031 0.040594075 -0.014519227 -0.020473523 0.09816308 0.1449271 0.06594128 -0.1730429 0.13159451 0.005192501 -0.05010775 0.04951889 0.07962637 0.043420326 0.2726353 0.024367949 -0.07920327 -0.118095875 -0.14714459 0.21451467 -0.07839256 -0.0024325517 -0.001925789 0.13885252 -0.12021291 -0.09726567 0.04174966 -0.0061755055 -0.006964106 -0.0038956762 -0.0057347664 0.03447813 -0.0027370362 0.050313473
l -0.018552233 -0.010819971 -0.07437012 0.006466836 0.2313026 0.020427067 -0.28512642 -0.2150325 0.16323397 0.14889006 0.07972362 -0.0069455355 -0.18247472 0.11243212 0.02613828 0.13938825 0.050013088 0.13265097 -0.005240478 -0.08300489 -0.119506724 -0.0045970543 -0.087688446 -0.09302309 0.053805582 -0.13460526 0.07663134 0.042907186 -0.0072337114 -0.13560514 -0.10423256 -0.049298644 -0.21909356 -0.039636966 0.15833674 -0.07357934 -0.1194827 0.029039543 -0.17252222 0.16729106 -0.13108349 0.12985444 0.18249203 0.08274224 -0.22211905 0.020073757 0.085581996 -0.1910449 -0.22352251 0.047855835 -0.18739758 -0.10266625 -0.26361242 0.0145320725 -0.039320376 -0.0151394345 -0.10746653 -0.033546865 -0.029649863 0.2869924 0.13508333 -0.104902245 -0.037221927 -0.16517371 -0.07586993 0.19517685 0.03801236 0.13361233 -0.25121868 0.021733928 -0.08269679 -0.08304689 0.0110246865 -0.066963285 0.033249043 0.069991365 -0.06371019 -0.087732956 0.08622108 -0.014128331 -0.008007314 -0.13223052 0.004038011 -0.03374333 0.2533028 -0.0013685863 -0.14413406 0.064182475 0.04269966 0.14295681 0.00691881 -0.045978922 -0.12087903 0.01817474 0.004493081 -0.02347314 0.05725669 0.017016677 -0.07513549 0.032499615 -0.014877734 0.037994575 -0.0058340286 0.024160337 0.044433832 0.03507159 -0.033763453 0.07321201 -0.07946209 0.0153134875 -0.06927036 -0.18209854 0.06303623 0.047861494 0.09359052 -0.1161651 -0.017381953 0.11959104 -0.05566477 -0.047052193 0.07583773 0.05394568 0.0432639 0.1541886 -0.13745846 -0.11997243 0.02363449 -0.099828884 0.15434647 0.0079158675 0.07016085 -0.09406345 0.12944682 -0.11478755 0.10458312 -0.12030489 -0.14548168 0.14265063 0.0070738853 0.035851255 0.06569611 -0.09938156 -0.16849716 -0.06515486 0.05606099 -0.09379546 -0.13710722 0.116431825 0.17347091 0.0145751545 0.009764031 0.06800209 -0.023782695 0.16278486 0.12292425 -0.13222575 0.0015096338 0.1546935 0.109668076 0.21427725 -0.2301838 0.025131434 -0.070121385 -0.07442725 0.12384382 0.040413454 0.04086665 0.03029825 -0.035358656 0.0019692525 0.0063955155 0.127308 0.0049975305 -0.17851318 -0.044191007 0.09687345 -0.05640055 0.015612475 0.08506941 -0.028306503 0.022160705 0.17045991 0.023931792 -0.032600936 0.10750094 0.1271501 -0.0115244035 -0.1407931 -0.0497137 0.14360282 -0.063105084 0.05079571 -0.026722992 -0.099013805 -0.034169316 0.005925688 0.0022648845 0.06899298 0.26961243 -0.10194874 -0.07725473 0.09817561 0.22687016 -0.029503401 0.104718514 0.09575499 0.015829239 -0.021805096 -0.03640909 0.030247927 -0.026188392 0.171465 0.18771966 -0.021770647 0.027227947 0.09614945 0.042602338 -0.15471658 -0.03887661 0.12780243 0.15468782 0.010092338 0.053078834 0.035696115 0.14444527 -0.03125696 0.03414287 0.094053745 0.025497004 -0.08654943 -0.10080927 0.00038154767 0.10380662 -0.03825298 -0.025976509 0.04313962 -0.03427607 0.0924519 0.17435819 0.044452675 0.12531272 -0.025713615 -0.114431575 0.09495885 -0.24852507 0.031654797 0.02278763 -0.10589725 0.082208 -0.050784048 -0.10450587 -0.04215355 -0.071628325 -0.2573043 -0.083717786 -0.037440393 -0.08325901 -0.20093611 -0.057324722 -0.035675682 -0.01705761 0.13855638 0.007872107 -0.056466684 -0.16845733 0.08246962 0.043369245 0.06460528 -0.086243995 -0.09581308 0.18582644 0.063704856 0.04644932 -0.15804665 0.0946652 0.011995567 -0.07184393 0.01958857 0.09751631 0.0031255574 0.2554343 -0.10644281 -0.11175906 -0.20902383 -0.21921255 0.16961204 -0.08065478 0.05416567 -0.03243378 -0.014228642 -0.0960911 -0.16588445 -0.038294807 0.0316225 -0.0014508732 -0.007972724 -0.0100154765 0.025424521 0.06875624 0.044673447
c -0.094821446 -0.008808512 -0.004345374 0.025515225 0.19448076 0.087951966 -0.16750811 -0.10044769 0.13721976 0.18111674 0.047683936 0.11135101 -0.09844427 0.12013776 -0.0007942368 0.047580354 0.06340638 0.10513039 0.02065026 -0.015550606 -0.052105147 0.019961024 -0.033353526 -0.06969396 -0.011521162 -0.044116385 0.044488378 0.07158046 0.020712687 -0.056284092 -0.09630285 -0.02263085 -0.091425255 -0.00073612184 0.030713668 -0.10842338 -0.11913148 0.07896807 -0.18357943 0.14924479 -0.079052165 0.10646736 0.09121205 0.04163795 -0.13558961 -0.10411294 0.10723339 -0.034882296 -0.067426555 0.06835332 -0.18579826 -0.00673521 -0.2308017 0.04691249 -0.043340344 -0.005781131 -0.103711054 0.023069778 -0.06558518 0.18528122 0.05679232 -0.026646089 0.023719423 -0.049481362 -0.11431329 0.20697357 0.032638606 0.027360322 -0.2135051 0.07828707 -0.053451188 -0.0798462 0.068010844 -0.13650464 -0.001550742 -0.014466456 -0.012062769 -0.036186263 0.091300525 -0.012741176 -0.057009853 -0.019008897 -0.027309801 -0.10002829 0.22935489 -0.05674883 -0.025487434 0.034973063 0.039820433 0.12936974 0.075778514 -0.034582302 0.0027019095 -0.017390257 -0.01404065 -0.0147251515 -0.053409617 0.13205895 -0.024456266 0.019186893 0.009695343 0.04375807 0.0019047359 0.04252378 -0.014041598 0.049745485 -0.0084423795 -0.02101878 -0.12922722 0.062145337 0.021239895 -0.22339489 0.012084848 -0.021104928 0.0074535566 -0.15927534 0.026800962 0.08739914 0.01096418 -0.00351393 0.117253885 -0.06165493 0.15152006 0.14584894 -0.08080504 -0.028168036 -0.09655062 -0.08136819 0.18292794 0.013631097 0.07782911 -0.08372962 0.15141529 -0.14690766 0.14555626 -0.06864672 -0.11167194 0.16113052 0.019224312 0.002893907 0.05502081 -0.19812885 -0.11280272 -0.027511848 0.061750174 -0.17912295 -0.10370847 0.075657256 0.084742434 0.096120894 0.04587962 0.037646804 -0.042497095 0.24628076 0.12355187 -0.20360982 -0.054293253 0.21442214 0.027937734 0.29981375 -0.14289127 0.0715337 -0.120548256 -0.066130556 0.16080713 0.08849094 0.123251416 0.07441215 -0.024870222 0.03290598 0.026608033 0.1513022 -0.037098765 -0.17308041 0.011533531 0.13879429 -0.14896353 0.01768483 0.085043415 -0.0071272063 0.027778212 0.13629876 -0.06557718 -0.07071718 0.035580326 0.24050368 0.0021040342 -0.16247766 -0.065216966 0.17029415 0.025534563 0.09006467 -0.064644486 -0.041334663 -0.006596112 -0.018094005 0.014164172 -0.019152932 0.21271813 -0.13138723 -0.033408057 0.050147034 0.2223568 -0.06343366 0.03044107 -0.013075262 0.0031897137 0.039658275 -0.0062512173 -0.032128874 -0.035280336 0.015757373 0.08505017 0.008957999 0.12337538 0.13127302 0.06954555 -0.14534752 0.009341468 0.06905209 0.05931402 -0.05153366 0.009806138 0.060471397 0.03072952 -0.09118742 -0.035895385 0.05692039 -0.03580234 -0.13996252 -0.15329258 -0.021110663 0.09057952 -0.03546811 -0.0305308 0.020405084 -0.017156962 0.13090433 0.15355168 0.099372186 0.14825894 0.019481884 -0.08104328 0.083036125 -0.16972147 -0.039348476 -0.020208107 -0.010335975 0.021046076 -0.02713984 -0.033529993 -0.110266715 -0.05728745 -0.28121406 0.0027637198 -0.08718477 -0.084601715 -0.133359 0.04042517 -0.0032441686 -0.048967864 0.05323004 -0.030014751 -0.007244807 -0.06669773 0.07937203 0.04090016 0.029890103 0.00072546373 -0.0234753 0.179505 0.041532975 0.102486834 -0.06863905 0.08071077 -0.06463579 -0.11275998 0.012655387 0.07320516 0.018179225 0.16753365 0.012062669 -0.061791968 -0.12268888 -1.8280723e-05 0.093935646 -0.035397716 -0.032900386 -0.07202304 -0.005303611 -0.07453232 -0.11148873 -0.06830605 -0.029492231 0.0067752353 -0.0273308 -0.029871246 0.05186802 -0.06030615 -0.014579126
? 0.037488636 -0.023391351 0.10052657 0.08209041 0.09576862 0.039418634 -0.16200636 0.025658133 0.2957474 0.027276466 -0.19818288 0.29148299 0.24020152 0.004714403 -0.072630055 0.15990523 -0.19189358 0.16988377 -0.02346858 -0.035243306 -0.31252018 -0.12135813 -0.12005011 -0.23104584 0.096272066 0.06365782 0.00675869 0.29807743 0.008534499 -0.13495038 -0.1452469 -0.20753458 0.16267093 -0.0463295 0.14335178 -0.1273647 0.010395122 -0.009037894 -0.34757847 0.1523062 0.075574294 0.08904241 0.07505276 0.116300166 -0.21643947 -0.1622934 -0.044035215 0.19246553 -0.03979059 -0.12364365 -0.1905975 0.10192399 0.03948333 0.16623232 -0.28083158 -0.03601597 -0.026354542 0.04715683 -0.25658697 -0.07485484 0.06455184 -0.15644877 -0.07543519 -0.17092809 0.005243989 0.071023814 0.12038911 -0.06299262 -0.20399252 0.073617466 -0.12697476 -0.14517853 0.14619598 -0.16505112 0.055454124 -0.02760594 0.10020158 -0.061922565 -0.03713662 -0.12440092 0.058484722 0.019679314 0.028229654 -0.08443723 -0.048246704 -0.05831521 -0.09134962 0.12775628 0.11633703 0.032404523 0.022546016 -0.10891236 0.058299262 0.15615281 -0.12104617 -0.047453854 0.16086641 -0.00033712937 0.034888823 -0.00078380055 -0.024085203 -0.13237652 -0.08780267 0.07317144 0.21870504 0.08986974 -0.021683099 -0.007590208 0.06464374 0.17583375 -0.09211234 -0.0141235115 -0.01952284 0.12003363 -0.018245406 -0.06753976 0.006783928 0.057529002 0.08941968 0.06863738 0.08179716 -0.06370187 0.12815942 -0.09929795 -0.061893985 0.0920251 -0.13258202 -0.2472862 0.100212626 0.06839315 0.026696935 -0.13155164 0.050398517 -0.0832937 -0.011707229 -0.013053685 -0.1715067 0.18738042 -0.05111683 -0.15673867 -0.04622092 -0.020836096 -0.09986476 0.036872853 -0.07173419 -0.18419546 -0.054487694 0.03163249 -0.08009167 -0.06613183 -0.0014162605 0.22289388 -0.074132524 0.028947916 0.0900616 0.0500887 -0.0031734197 0.18637373 0.004357393 0.12034484 -0.14102946 0.0975626 0.037250284 -0.09185938 -0.10367839 0.05933164 0.02813545 0.08762159 0.026393374 -0.023854878 -0.017957821 -0.017668575 -0.00070164335 -0.12732074 0.04851583 0.055603947 -0.062179998 0.061101407 -0.10968058 -0.04702751 -0.06847763 0.092762485 -0.11697633 0.017636538 -0.004127479 0.019639064 0.0046816207 0.0835487 -0.075038776 0.16077438 -0.015897717 0.10757548 0.072398685 -0.06735137 0.061836775 0.0047059227 -0.1978074 -0.06367528 -0.011942139 -0.28425956 -0.10286238 0.018743686 0.18397039 0.1315021 0.079887874 0.010688318 -0.029545713 -0.1727186 0.05115508 -0.030063232 -0.088567324 -0.05236954 0.004325801 -0.10695382 0.025324795 0.057751168 -0.0656299 -0.0078376075 0.008769199 0.23675697 -0.08508049 0.1050324 -0.07437321 0.08555679 0.14965941 0.1041345 -0.089312665 0.018057711 -0.07503623 -0.26893345 -0.11135027 -0.0943555 0.030333605 -0.09348227 -0.13178653 -0.15427573 0.01378445 0.1194119 0.18594682 0.13473305 0.17003572 -0.04915104 -0.21649761 0.062279597 -0.13571241 -0.028129844 0.11427796 0.15163492 -0.08340001 -0.06161645 -0.13361186 -0.16570957 -0.1515517 -0.23716804 -0.013817421 0.13182263 0.118077025 -0.12951225 -0.0011889058 -0.07700508 0.09710218 -0.18022239 -0.15495518 0.043531954 -0.049909744 -0.23620336 -0.032303978 0.017243437 -0.0132423835 -0.10856495 0.09172869 0.09414959 0.082752824 0.07138097 0.15441906 -0.11871067 0.014527559 0.068531655 -0.12845314 0.124778256 -0.02584431 0.107366726 -0.019713683 -0.014776839 -0.06726335 0.16234162 0.15408547 -0.122985244 -0.043287482 0.16348878 -0.083095856 0.1190912 0.067869805 -0.012672894 -0.023506235 -0.055171397 0.09429623 0.0074266847 -0.0043674167 0.10328055
d -0.076514974 -0.065916665 -0.102160014 0.005673211 0.17198049 0.025040677 -0.16092575 -0.13410299 0.060449615 0.07774755 0.025606098 0.053385045 -0.042405274 0.10928219 -0.030913042 0.07032076 0.017851498 0.10343637 0.005521374 -0.041235305 -0.050410412 0.022873506 -0.10429598 -0.06352535 0.01358675 -0.118922725 0.07310892 -0.003453997 -0.038079422 -0.10161778 -0.054095 0.022444092 -0.18087286 -0.07298873 0.10734182 -0.05978416 -0.03550103 0.08282719 -0.11181073 0.10676621 -0.038049165 0.10100157 0.08008759 0.023567399 -0.13258019 0.0051852153 0.007745184 -0.10464798 -0.12142013 0.07592418 -0.08276172 -0.10032401 -0.159648 -0.003895361 0.022822682 -0.03615404 -0.104177244 -0.02825227 0.006918508 0.20166342 0.086992204 -0.070953034 -0.032890934 -0.12937482 -0.014444321 0.14058338 0.027168723 0.12508756 -0.18482085 0.041806042 -0.07306072 -0.13302574 0.023732217 -0.1227557 0.030173497 0.016297728 -0.015252007 -0.11258404 0.12346783 -0.03270452 -0.03365285 -0.10794453 0.002991105 -0.04545289 0.23905852 -0.07217406 -0.09062075 0.03931531 0.023127927 0.14818464 0.00039154367 -0.073504455 -0.08467694 0.037151873 -0.051017836 -0.030034974 0.016368847 0.065034 -0.103726566 -0.036650818 0.07965562 -0.044347297 -0.06354464 0.06243141 0.050630677 0.027722165 -0.073822804 0.0073434017 -0.06758015 0.04930092 0.0132469 -0.22170252 0.064995214 0.0078901285 0.021759916 -0.19302376 -0.015162047 0.10683142 -0.007483077 -0.0077903755 0.16868834 -0.016481644 0.07658136 0.10825254 -0.10098504 -0.1993172 -0.062943436 -0.12808774 0.16473395 0.007217581 0.0872926 -0.14812662 0.14826407 -0.08497896 0.08800248 -0.12019905 -0.18977928 0.18586175 -0.031088622 -0.01392075 0.057794485 -0.16617994 -0.17394046 -0.027785135 0.11079914 -0.114462815 -0.14981446 0.07718049 0.13433668 0.025739696 0.052536782 0.033298563 -0.013215431 0.13880852 0.12622471 -0.17307903 0.0034964776 0.21184187 0.0697085 0.260438 -0.16822897 0.024114111 -0.073873535 -0.10719106 0.073346384 0.05954348 0.0662128 0.017068978 -0.06130504 0.003647041 0.033276454 0.106154956 0.014915731 -0.095357254 0.04239948 0.09641845 -0.08324173 0.021381602 0.07011084 -0.065191545 0.033043746 0.1757621 0.021906525 -0.07088062 0.11631325 0.20476657 -0.024736159 -0.09187837 -0.08069413 0.2593544 -0.049081143 0.06281949 -0.041417357 -0.03887037 -0.044879887 -0.054655712 0.023884846 0.075059205 0.21661384 -0.1854003 -0.059002675 0.0760736 0.26671004 -0.055042896 0.16882066 0.074197754 0.052367494 -0.05831099 -0.02017135 0.0045438446 -0.055683907 0.11489824 0.18846308 -0.036126476 0.047471143 0.12650637 0.03429981 -0.14496794 -0.03990754 0.12057269 0.10387594 0.012752193 0.06791804 0.015691899 0.15258907 -0.04325452 -0.033800397 0.123580754 0.016267465 -0.13230684 -0.13350676 -0.017954355 0.11328348 -0.08696358 -0.08925416 -0.009299304 -0.028454501 0.10622852 0.1526525 0.1009394 0.11450542 0.025575472 -0.14001268 0.11727524 -0.28189972 0.007320224 0.025899792 -0.05902605 0.024351537 -0.01917161 -0.081508994 -0.058183488 -0.011004161 -0.27650213 -0.063751705 -0.047036786 -0.060381856 -0.19765256 -0.013839183 0.0050910893 0.026387777 0.11650941 -0.046356507 0.026763115 -0.16112891 0.09354393 0.06706244 0.13258027 -0.11481466 -0.085293606 0.13683578 0.10833029 0.11563681 -0.15043862 0.10683651 -0.06045923 -0.1272555 0.046959847 0.1424982 0.03144804 0.17343922 -0.046658892 -0.07637612 -0.19705403 -0.13725178 0.1144769 -0.065282695 0.009655692 0.035236776 0.029689766 -0.11193971 -0.12867786 0.0069741337 -0.03913351 -0.047325037 -0.03910768 0.027262421 0.020770729 0.02730188 0.024956824
m -0.0013397562 -0.029725254 -0.084407456 0.09234904 0.13449426 0.028259074 -0.14046352 -0.017737756 0.27769598 0.17112894 -0.021011377 0.10175237 -0.17846087 0.0587136 0.018764624 0.005212048 0.062124703 0.09908329 0.024004396 -0.059862245 -0.06373711 0.04545209 -0.032382052 -0.12687199 0.07139699 0.016481979 -0.03458817 0.042245466 0.05003109 -0.033953924 0.058320735 -0.027629416 0.021700587 0.06655318 -0.05001759 0.017082797 -0.053601168 -0.008450811 -0.0046564885 0.036898073 -0.07653379 0.04428156 0.0012523377 0.030426392 -0.054691363 0.032825317 0.011487657 -0.028253326 -0.018622443 0.018118793 -0.1387053 0.06688129 -0.09020662 0.043587986 -0.12710187 -0.06654096 -0.08020067 0.08644732 -0.09498028 0.08430128 0.09582744 -0.021377407 -0.031164141 -0.028857874 -0.10173208 0.0820754 -0.118687935 -0.033050925 -0.09169661 0.11709124 0.018144054 -0.07305683 0.056306977 0.06384556 0.05303413 0.09247289 -0.05240893 -0.100497305 0.01564369 -0.081710294 -0.031428292 -0.010521018 0.016230872 -0.06699399 0.18050116 -0.036602166 -0.08654026 0.10414606 0.07185395 0.08408207 -0.0027524636 0.077414736 0.05055221 -0.033447582 0.119743206 -0.10732347 -0.06638129 0.13561448 0.004759212 0.08934199 -0.049179118 -0.006951135 0.04575668 0.024823306 0.0017452737 0.051150575 -0.00031161308 0.057539497 -0.0890188 0.056161407 -0.010686493 -0.10556289 0.008221541 -0.013304168 0.04392503 -0.07830932 0.103407934 0.19321269 0.037835263 -0.0109161185 0.09734288 -0.046553995 0.12208033 0.18073945 -0.03667048 0.045269135 -0.04298856 -0.07835381 0.13745812 0.0607792 0.018946663 -0.08056491 0.07852003 -0.11949702 0.11240459 -0.18051513 -0.08862214 0.11028987 -0.07536538 0.03812176 0.06037246 -0.16434091 -0.22918412 0.044755895 0.09357722 -0.1153951 -0.06558018 0.03725076 0.13420473 0.0264502 -0.014681648 -0.11422804 -0.030916875 0.13964048 0.10597386 -0.045663517 -0.0032334502 0.11146392 0.01188169 0.041463897 -0.12463435 0.10254314 0.017494617 0.02994638 0.06694423 0.017796932 0.1565244 0.12539056 0.020175703 0.15587911 -0.011910189 0.008377936 0.0972782 -0.075888395 0.10766224 0.084535845 -0.06974512 0.012029584 0.10519108 -0.0051038577 -0.03535356 0.12127424 -0.04339088 -0.0988378 0.001967273 0.049714252 -0.09274004 -0.03015417 -0.060962155 0.17977008 -0.030401172 -0.004049226 -0.07042556 -0.022875804 -0.07615714 -0.13183445 0.040012255 -0.052670326 0.12772946 -0.13078295 -0.08361955 0.041466955 0.12724058 -0.06254087 0.076824374 0.013560674 0.051295005 0.045825373 0.0426888 -0.093024865 -0.02250942 0.18621202 0.14912 -0.05385906 0.07120579 0.101588614 0.08936428 -0.081646204 0.015228677 -0.030749593 0.09874216 -0.0760133 0.097522885 0.017567724 0.035973705 -0.14353056 -0.045577034 0.029916812 0.0007900544 -0.12279713 -0.028787062 -0.06290645 -0.017994437 -0.016539589 0.15127677 -0.027855594 -0.08305142 0.086677596 0.04878869 0.011125256 0.06251493 0.039645527 -0.021825379 0.06727072 -0.065648764 0.0022926468 -0.08653174 -0.12967117 -0.04526842 0.020481607 0.02931604 -0.035023145 -0.09368522 -0.045861263 -0.028244803 0.07000153 -0.05255839 -0.0080428915 -0.0019440723 0.09320188 -0.026478227 0.08318995 -0.08744144 0.0017109801 -0.09775986 0.077804245 -0.0004211092 0.11152688 -0.064144224 -0.031055044 0.04038534 0.07400499 -0.0045702094 -0.1484206 0.09293905 -0.08210545 -0.15664414 -0.10242211 0.08206307 -0.013469139 0.14755052 -0.11503446 -0.08593279 -0.11371027 -0.17739646 0.20347162 -0.054240342 0.0870863 -0.063451745 -0.03229603 -0.064556055 -0.13860017 0.002239153 0.06773627 -0.03883775 -0.033262506 -0.03915385 -0.023223463 -0.041981153 0.07423512
p -0.053264275 -0.037471578 -0.09319102 0.10405866 0.15492398 0.09256 -0.0736256 -0.03994187 0.22910252 0.18762645 -0.020820102 0.023201467 -0.108896635 0.043335013 0.046906758 0.07335135 0.09004214 0.09270331 0.003085203 -0.04828009 -0.0883854 0.041292384 -0.08607909 -0.09391895 0.030107658 0.018347817 0.016943207 0.06543355 0.024906104 -0.047674913 -0.0743661 0.023392437 -0.09135273 0.04510152 0.09457404 -0.07543581 -0.08121449 -0.00016019642 -0.13763694 0.16020904 -0.0176255 0.08835377 0.044198625 -0.0020676334 -0.12639835 -0.10323948 0.11868763 -0.114061914 -0.12121876 0.044676773 -0.22349465 0.00056925236 -0.23085493 -0.0086656045 0.0059859557 -0.021984981 -0.11201251 0.08254762 -0.045424525 0.14767684 0.0017808569 0.01415603 -0.048940554 -0.036893543 -0.09833634 0.15550466 -0.06624011 -0.0047776527 -0.19972442 0.08638239 -0.034901094 -0.08161274 0.06586971 0.017815512 -0.0104402425 0.012546573 0.040854055 -0.0049274564 0.047383275 -0.053477447 -0.03638647 -0.046007507 0.017606545 -0.17166494 0.25005066 -0.079540335 -0.06977522 0.061349157 -0.01014825 0.12908617 0.12877177 -0.02847246 0.08831871 -0.08835752 0.06211635 -0.08207088 -0.0023585449 0.14589104 -0.011732613 0.014106688 -0.00959564 0.015610452 0.019018611 0.04104398 0.012469808 0.12611462 0.028631447 0.046321534 -0.1320613 0.088727444 0.016342994 -0.29200208 0.09798171 -0.021763103 -0.03509073 -0.1653396 0.03893417 0.18099445 -0.0126769245 -0.06871612 0.20026761 -0.019104991 0.10876159 0.20079981 -0.104282774 -0.027252197 -0.062371958 -0.1440997 0.13774744 -0.0036276318 0.045692477 -0.12954442 0.15280437 -0.26051992 0.1601429 -0.07709341 -0.19494367 0.12885806 0.04686201 0.05516432 0.06784112 -0.19329071 -0.11861378 0.009041127 0.047189686 -0.22367261 -0.07362405 -0.024468143 0.14740531 0.010119376 0.041530963 0.042349067 -0.085097484 0.26372772 0.11335859 -0.114210375 -0.004197421 0.241282 0.039853502 0.26315334 -0.15141423 0.13570994 -0.028054563 -0.07330881 0.1453966 0.045985375 0.18040222 0.099436864 -0.012444969 0.05910609 -0.055104744 0.11065312 0.036070473 -0.17387596 0.0538998 0.056896616 -0.12263971 0.080616936 0.09924663 0.04292161 -0.026173059 0.16822161 -0.019767229 -0.059681416 0.06617658 0.20236434 -0.018392595 -0.13125414 -0.12903796 0.1605121 0.023705369 0.039370786 -0.09186619 -0.026594277 -0.10758121 -0.056208447 0.042554498 -0.010190158 0.2540873 -0.23505686 -0.05541521 0.13036753 0.33537972 -0.03568537 0.04639935 -0.013908729 -0.01291457 0.0063237725 0.026806533 -0.01826159 -0.034670237 0.04131201 0.16668947 0.0027917055 0.12847766 0.14991382 0.015817652 -0.08816622 0.049320746 0.12003757 0.13476013 -0.0416881 0.11529073 0.041858055 0.10586113 -0.18865314 -0.04228612 0.09241819 -0.020677987 -0.14388955 -0.10749932 -0.073255874 0.047795337 -0.00028704412 0.0224165 -0.02748024 -0.084363185 0.21236105 0.2043522 0.07126347 0.14055362 -0.019573938 -0.07360889 0.029905064 -0.13279031 -0.043650128 -0.029080408 -0.07627293 -0.09683457 0.02714265 -0.01683719 -0.0361659 -0.056006603 -0.27113652 -0.037253484 -0.03497276 -0.11486451 -0.049047664 0.085990846 0.0297644 -0.08918935 0.015938438 -0.040927935 -0.014461062 -0.16036983 0.035378247 0.025676677 0.08072733 0.05211409 -0.07760607 0.10309929 0.009078147 0.10532946 -0.067591436 0.1400759 -0.10925226 -0.07369227 0.0009832109 -0.029324414 -0.009804742 0.16290481 -0.09662303 -0.11373794 -0.06446896 0.026768109 0.14987041 -0.050782897 -0.002261144 -0.011849649 0.04426801 -0.111518234 -0.13683702 -0.031573933 -0.0034572664 0.0070296223 0.008140592 -0.015492171 0.022405248 -0.028070698 0.073426306
u -0.13469027 0.03666359 -0.008063506 0.019362573 0.08445538 0.11605516 -0.22485976 -0.017863087 0.27451655 0.18648396 -0.009666428 0.026909182 -0.043125544 0.10432171 -0.00387926 0.2352799 0.07460439 0.020673374 -0.105969205 -0.008802493 -0.17832199 -0.041542955 0.004153338 -0.06027158 -0.034329362 -0.091824606 0.20429778 0.1278206 0.03947796 -0.07868126 -0.04789684 -0.18155345 -0.064866364 0.00056071545 0.11578957 -0.15098809 -0.12603547 0.008873024 -0.19609308 0.13194291 -0.16503714 0.04749813 0.14953403 0.138331 -0.21327887 -0.09877228 0.113220274 -0.27639624 -0.18245228 -0.06430545 -0.36188513 -0.071149446 -0.2506302 -0.050644174 -0.012049918 0.024150176 -0.03449622 0.117488034 0.10135852 0.18392423 0.071259715 -0.06393366 0.03534541 0.020508802 -0.060077954 0.2163116 -0.035055973 0.015047579 -0.13472569 -0.015437875 -0.08256385 0.045928434 0.045253076 -0.078405894 0.021318328 -0.13917236 0.09537204 0.041504312 0.08639718 0.09815458 0.07155382 -0.11741533 0.01813456 -0.04638517 0.08240327 -0.074914694 -0.17042942 0.0832863 0.009605086 0.09847854 0.09509416 -0.17225309 -0.035909373 0.07237757 0.08492933 -0.09715183 0.05479928 0.10928259 -0.082066 -0.06496005 0.028482558 0.038843904 -0.045096915 0.0677083 0.14186259 -0.037339173 0.034632012 0.22519445 -0.03852317 0.010538532 -0.0057892725 -0.22512214 0.14530165 0.04386656 -0.00829985 -0.1649168 -0.015722547 -0.040784627 0.015764594 -0.026502129 0.041296296 0.056912035 0.046953492 0.14872402 -0.26400566 -0.13953684 -0.05387549 -0.18892187 0.1128634 -0.09562665 0.094037674 -0.13013946 0.057166487 -0.23003152 0.20483105 -0.048235673 -0.24419907 0.26841104 -0.09202041 0.06351901 0.07150063 -0.056796663 -0.11403342 -0.04535958 0.063969225 -0.21571277 -0.23777188 0.0005053282 0.13777742 -0.14036424 0.21749508 0.13648461 0.118812576 0.26349223 0.07389123 -0.27894798 0.021071846 0.18981884 0.1520658 0.32763073 -0.118290454 0.1847121 -0.040370855 -0.121964104 0.2056697 0.053228427 0.043189306 -0.015698157 0.10960151 -0.104423404 -0.077256896 0.1935154 -0.0015072409 -0.18662418 -0.15956247 0.11197961 -0.14970163 0.14028801 0.025790052 -0.09237181 -0.04277801 0.051321983 0.05849972 0.041456945 0.13466185 0.19919352 0.1292037 -0.10509078 -0.04650962 0.01964467 0.032304537 0.10346137 -0.08394036 -0.038650952 -0.0036621657 0.1074797 0.056350052 0.061192065 0.22875126 -0.17245293 0.0042348686 0.07251807 0.24897598 0.09457613 0.106014445 0.004839306 0.086485475 -0.030306369 -0.06427013 0.22294943 0.1382816 0.0666415 0.13865669 0.07314601 -0.009243478 -0.07359098 -0.027549412 -0.14621311 0.1092679 0.18794173 0.111056425 -0.07128961 0.08392313 -0.0132671995 0.15140119 0.0037089395 -0.014321301 0.08013606 0.095928326 -0.063384145 -0.006118433 -0.09881454 0.030133404 -0.051236175 -0.099884905 0.063090846 -0.05835064 0.020708332 0.29935214 0.080584824 0.14593463 -0.124125995 -0.22483882 0.00047015536 -0.17707343 -0.025299106 0.02065893 -0.15444808 0.025702119 -0.0565291 -0.04543189 -0.015340121 -0.2235134 -0.25969768 -0.08604785 -0.1008886 -0.1692398 -0.2837291 -0.033939198 -0.02422684 -0.09940851 0.09994958 0.0094196685 0.05104078 -0.042820774 0.01842086 -0.021010878 0.004113747 0.14580654 0.0046000257 0.14190523 -0.025951931 -0.05076394 -0.1957171 0.061961625 0.041397557 -0.08755101 0.114484474 -0.023966687 0.032660007 0.21825878 0.06273969 -0.00081693765 -0.12367455 -0.20973706 0.17031829 -0.024522193 -0.08237557 0.15175265 0.21870713 -0.13179857 -0.10881474 -0.03308163 -0.028950773 0.11668492 0.1019028 0.11813928 -0.003546885 0.038726855 0.17085502
h 0.04999733 -0.07897035 -0.07591656 0.042603064 0.117111094 -0.006646582 -0.22398567 -0.027406741 0.4123081 0.119006336 -0.051085513 0.070555694 -0.085169554 -0.00916323 -0.010262164 0.12738162 -0.020441316 0.04111591 0.06015309 -0.104929954 -0.122626506 0.024027029 -0.15495533 -0.15427794 0.12682445 0.026385374 -0.015727852 -0.010544024 0.088903405 -0.035320785 0.048935656 -0.08956734 0.055197496 0.05686574 0.072109066 0.090671465 -0.11434688 0.012347462 -0.09164253 -0.012700285 -0.06648042 -0.0030361342 0.06304456 0.14677614 -0.14694259 0.079038106 0.092858106 -0.049297333 -0.08334191 0.006434257 -0.17751604 -0.011067469 -0.09266368 0.00054915936 -0.17794108 -0.09769494 -0.22473992 0.012654216 -0.10765827 0.10991089 0.12269153 -0.11485539 -0.15240405 -0.11428977 -0.068610646 0.14936708 -0.09259828 0.012764659 -0.14775556 0.20567696 0.113439314 -0.09650289 0.005093274 0.1161474 0.028868297 0.16698778 -0.07027947 -0.10338098 0.029914219 -0.0740605 0.015631665 -0.036120642 0.15516524 -0.11239348 0.15790498 -0.06297745 -0.06514553 0.06809901 -0.0030070767 0.09888189 -0.01849275 0.07888221 0.096975796 0.014880285 0.1814544 -0.19468588 -0.041160177 -0.0015722575 0.035738003 0.10444784 -0.04840498 -0.08535777 0.042904455 -0.010991966 0.022664988 0.002728984 0.062486153 0.11219321 -0.09778231 0.054365717 0.003995933 -0.11350361 0.031812757 -0.027058596 0.043217164 -0.06193529 0.059066474 0.19312543 0.034002896 0.030367231 0.08054883 -0.030872902 0.09349567 0.2304856 -0.07160905 0.007937654 0.0065135164 -0.13558479 0.0972304 0.06446833 -0.023282222 -0.09493033 -0.0045313076 -0.16446847 0.1457026 -0.20813963 -0.13600612 0.062536106 -0.045118354 0.053677898 0.006233652 -0.14416169 -0.18066755 0.03188804 0.073462784 -0.09056537 -0.022380073 0.094133705 0.16573296 0.065973215 0.036688916 -0.10680338 -0.03644808 0.12697151 0.1748283 -0.013954999 0.06317948 0.21794803 -0.023725664 0.035521857 -0.14022683 0.08260916 -0.01405483 0.0050026695 0.04859899 0.004613841 0.1412451 0.15072376 -0.016176635 0.15814577 0.01110764 -0.05631629 0.099185 -0.07545571 0.096963815 0.03827742 0.01921304 0.024213247 0.096226014 -0.038423046 -0.061588682 0.08630137 0.03470407 -0.04054561 -0.016817104 -0.0028544765 -0.10575264 -0.01377931 -0.038448684 0.114506006 -0.080544695 -0.031464837 -0.0039252136 -0.043869764 -0.09204529 -0.031197794 -0.004563769 0.010701503 0.12938455 -0.14832914 -0.03837627 0.055048894 0.09575109 -0.033349622 0.11437465 0.009700038 0.09492975 -0.027683837 0.10473114 -0.1007946 -0.029017873 0.1936252 0.21092194 -0.09848508 0.0784772 0.036794953 0.028295835 -0.017352792 -0.033207744 0.055789217 0.06068042 -0.041932475 0.08165142 0.018037163 0.080176294 -0.107966356 -0.031857513 0.12784468 0.05780894 -0.08427742 -0.0005332898 0.02270109 -0.03412017 0.011237066 0.08138698 -0.14854166 -0.15051207 0.099262044 0.15580286 0.009242269 0.08303851 -0.08634611 0.0029291287 0.037077196 -0.12187465 0.0903301 -0.07277919 -0.16029634 -0.019587576 -0.050649658 0.038652293 0.05232594 -0.12425756 -0.081451625 -0.03154375 0.15074968 -0.018268468 -0.03988327 0.016138013 0.14987159 -0.0070729037 0.09427216 -0.09837779 0.08067182 -0.08680721 0.024778975 0.01618991 0.13061062 -0.14072144 -0.08052897 -0.015019597 0.1718569 0.02827982 -0.14649937 0.12503064 -0.032170355 -0.06771812 -0.097697526 0.03672949 -0.10541008 0.12479699 -0.20132536 -0.15731853 -0.15823609 -0.1319094 0.22623153 -0.038770724 0.07497717 -0.12283275 0.010767878 -0.023965467 -0.08912526 0.08632928 0.04903984 -0.03344276 -0.015283367 -0.08747972 -0.013154159 0.036735535 0.07398653
g -0.18075763 0.026116323 -0.073394276 0.08266137 0.16213313 0.15849312 -0.21084611 -0.041646134 0.11101175 0.12292695 -0.021666879 0.08760099 -0.0544259 0.15828182 -0.07024357 0.037477713 0.032067202 0.12997843 -0.002364393 -0.024631124 -0.095726825 0.01677148 -0.042370044 -0.059893634 0.025158826 -0.02601001 -0.009598305 0.011714325 -0.0049841823 -0.054891013 -0.01805074 -0.05389264 -0.06989011 -0.05129106 -0.008158819 -0.05159039 -0.03503556 0.10015383 -0.106369205 0.13190104 -0.09284836 0.10288961 0.026142884 0.03832875 -0.103575826 -0.0017755625 -0.048352834 -0.043092832 -0.021949552 0.07153835 -0.057643875 0.03144751 -0.12916198 0.10278744 0.025303394 -0.03251808 -0.05412056 0.0688206 0.021265917 0.21197231 0.045342926 -0.011453074 -0.018899554 -0.11762617 0.010699682 0.15910426 0.007885322 0.04698742 -0.13421142 -0.03526712 -0.07489425 -0.13958582 0.13938367 -0.09897851 0.032592468 0.013381235 -0.03787625 -0.19394435 0.121853724 -0.058583654 -0.029774828 -0.037454907 -0.114739925 -0.0542557 0.2048366 -0.03187198 -0.07316245 0.03576404 0.13137735 0.10308073 -0.01603424 -0.12682535 -0.12846671 0.105000585 -0.01774487 0.035117965 -0.030712225 0.10543176 -0.10406945 0.049257364 0.03426618 -0.011093372 -0.0036003503 -0.024876947 0.078230575 0.0075738183 -0.1892816 0.020006 -0.10104985 0.111859575 0.056890562 -0.21730395 0.021564424 -0.019575974 -0.018299706 -0.1736602 0.098006286 0.11499201 0.039306957 -0.04777196 0.26932272 -0.08886406 0.1431286 0.11355783 -0.11595281 -0.14713937 -0.12347299 -0.13973008 0.16653363 0.026252858 0.18781774 -0.1448647 0.21259648 -0.09337199 0.07098016 -0.06250956 -0.16163993 0.23942675 -0.14323911 -0.015851999 0.12163603 -0.23238881 -0.16634391 -0.013311518 0.14160508 -0.13492772 -0.11984293 0.11149195 0.1183483 -0.022020342 0.024596704 0.034387805 -0.03409167 0.1393962 0.13340172 -0.19899909 -0.023139346 0.20440187 0.094371416 0.34239173 -0.11085171 0.04808363 -0.00271193 -0.13731587 0.017938465 0.018972348 -0.0073864586 0.08499375 -0.045753337 -0.07618107 0.06858679 0.11831741 -0.112494454 -0.13291514 0.017628875 0.15729792 -0.12651339 0.031047497 0.049149193 -0.13909194 -0.08262914 0.13270882 -0.058879152 -0.07634021 0.09378949 0.21403171 -0.050838824 -0.09608539 -0.09493475 0.3139935 0.014515424 0.15763181 -0.062016577 0.036704328 0.011556722 -0.10017247 -0.06401621 0.04672479 0.22635084 -0.09708022 -0.11156443 0.022603432 0.23840393 -0.04869119 0.11909404 0.02035644 0.0727247 -0.06636982 -0.011883294 0.031556763 -0.018875243 0.02518125 0.13232361 -0.101921365 0.09947893 0.114427276 -0.00041047132 -0.22576334 -0.0533921 0.063627124 0.026780957 -0.011628223 0.009573207 0.029692635 0.14121278 -0.027264936 -0.025078848 0.05551041 -0.016333109 -0.20329067 -0.115502626 -0.0041487664 0.10812936 -0.058541138 -0.10153427 0.011945569 0.058837526 0.06661016 0.09426712 0.1630977 0.08029486 0.06627631 -0.17405881 0.05242603 -0.18457845 0.02250343 0.023968887 -0.050927613 -0.016381957 0.036447138 -0.08411915 -0.08364264 0.030927416 -0.19129407 -0.0063701193 -0.06504447 -0.05853166 -0.2104868 0.012615048 0.042167507 -0.04140643 0.053019706 -0.09044884 0.015641063 -0.08539548 0.0721284 0.094334885 0.050693158 -0.08734289 0.068607055 0.1502 0.10414247 0.044090115 -0.12770113 0.074291386 0.010217402 -0.118898466 -0.06564934 0.16024375 0.08847662 0.13840924 0.14115016 0.03872862 -0.09023126 -0.07546322 0.1276189 -0.09735283 -0.012344475 0.026320938 0.025303422 -0.09591194 -0.07383297 0.016162736 0.0037616482 -0.046667274 -0.06933959 0.10890489 0.030227436 -0.038586017 0.008375538
b -0.11210532 0.01722764 -0.036759466 0.035323422 0.25828397 0.0018678758 -0.23023611 -0.011314973 0.19901794 0.16500716 -0.020778367 0.04881343 -0.082632355 0.07320542 -0.085470565 0.12680334 0.08310603 0.10927545 -0.019797407 0.04965116 -0.12717317 -0.073016725 -0.04300743 -0.10092174 0.11881854 0.005581078 0.0884957 0.071725115 -0.011408211 -0.12617607 -0.031797003 -0.10519689 0.025799952 -0.03230706 0.17907438 -0.075350575 -0.1433612 0.015144648 -0.15879679 0.07896564 -0.075825416 0.12471196 0.14113386 0.09892962 -0.025382923 0.009630077 0.019646438 -0.14418417 -0.12563083 0.059369862 -0.09101816 -0.036347594 -0.18656816 0.03390253 -0.056469303 0.051776815 -0.14510703 0.049981393 -0.10835533 0.08896033 0.090591505 -0.084211744 -0.0750414 -0.030368786 -0.107846536 0.12634915 0.029089559 0.03264645 -0.21046452 0.14147076 -0.015342113 -0.119418174 0.06233003 -0.07843947 0.030703126 0.12285457 -0.025373897 -0.024601558 0.09884599 -0.04403283 -0.13303234 -0.039561007 -0.04982674 -0.09531617 0.3346984 -0.010279472 -0.13079382 0.10965841 0.12282174 0.11968522 0.014422569 -0.035697043 -0.07332543 0.001203945 -0.053960506 -0.08924933 0.07607751 0.13572514 0.004486147 0.0057953056 -0.039754994 0.11296606 0.018074991 0.0594295 0.067568876 -0.05189231 -0.032565378 0.036566414 -0.019624649 0.10681456 0.07481949 -0.22412932 0.08188849 -0.00990197 0.022054793 -0.24677959 0.11867703 0.20685586 -0.059290435 -0.12898023 0.1692121 -0.024385208 0.06145396 0.2974362 -0.15732723 -0.127685 -0.10990114 -0.091109216 0.11211548 0.015321098 0.039031003 -0.05577865 0.09411712 -0.15085882 -0.021230543 -0.12746474 -0.1425125 0.102374375 0.08693945 0.060101204 -0.016273988 -0.053949576 -0.14550547 0.048739586 0.06791986 -0.077245854 -0.0978753 0.10334395 0.12158303 0.026606077 0.020908048 0.040550567 -0.111815855 0.31485292 0.112805724 -0.1697038 -0.08393387 0.20440167 0.03482252 0.14298673 -0.149842 0.055629365 -0.07586407 -0.098037116 0.05002751 0.028199552 0.02368812 0.029092709 -0.031521976 0.012111928 0.04838628 0.059121966 0.02508759 -0.09610313 0.035717845 0.07464566 -0.074437186 -0.029459128 0.09042925 0.050768703 0.07734321 0.12071365 -0.018823296 0.0071381372 0.02590333 0.06389943 -0.03784529 -0.1063338 -0.083504565 0.05408286 0.016823007 -0.03881552 0.007454487 -0.03751305 0.018992973 0.0145490235 -0.040806476 0.110274106 0.14070629 -0.054146424 -0.04749156 0.05166893 0.19258563 -0.08381694 0.14685562 -0.017770207 -0.04513845 0.023563433 -0.009602495 -0.027677715 0.017393777 0.08289134 0.09530583 -0.07324071 0.015787687 0.110344365 -0.005164068 -0.09113467 -0.014955661 0.0916627 0.050939072 -0.03504184 -0.029596735 0.08222074 0.100565664 -0.08236828 -0.06977025 0.03965926 0.017580874 -0.025867894 -0.030934554 -0.07071703 0.07147679 -0.015813222 0.000815211 0.055691484 -0.034434788 0.09652719 0.03964617 0.012237605 0.03317088 0.07639894 -0.07909879 0.045516644 -0.11765091 -0.02459319 -0.050004613 -0.0660327 0.022232145 -0.10349535 -0.02355153 -0.08011939 -0.0600959 -0.20541117 0.031196706 -0.020070463 -0.06012958 -0.12562773 -0.00842858 -0.01694205 0.105072714 0.028275743 -0.029026473 -0.0131669585 -0.13928758 0.1479948 0.061536714 0.07804483 -0.16755605 -0.0500889 0.08693595 0.05051334 0.09259164 -0.17063972 0.011657795 -0.034634154 -0.1007986 -0.07318342 0.08932357 -0.028805599 0.18242458 -0.06440217 -0.11663394 -0.19790368 -0.13963048 0.11721421 -0.025730278 0.10075734 0.03411808 -0.00876211 -0.047286127 -0.15407717 0.018401504 0.074294224 0.074184015 -0.070076875 -0.04948364 0.05281649 -0.025026439 -0.0032726377
y -0.091004916 0.0022574833 0.015406361 0.017919887 0.19055238 0.018184869 -0.18442363 -0.08921125 0.18061332 0.17404388 0.040038537 0.0491564 -0.09714533 0.09175691 -0.019887468 0.13940307 0.08684854 0.12904127 -0.05832324 0.0025741349 -0.09388906 -0.025842482 -0.0069844215 -0.116798274 0.09038648 0.020534912 0.10163554 0.09721704 0.017002469 -0.095796056 -0.07428062 -0.12036714 -0.01335419 -0.0036584004 0.10325948 -0.03747685 -0.1577086 0.018267801 -0.12867063 0.07067982 -0.05877799 0.08018044 0.09323364 0.083713025 -0.11052754 -0.053843908 0.06737224 -0.10473611 -0.08154258 -0.029206906 -0.16406617 -0.03387807 -0.20506874 0.032406546 -0.035502497 0.031433124 -0.11355679 -0.00092156685 -0.15283415 0.14674191 0.06783504 -0.027893705 -0.061482143 -0.014237238 -0.1084739 0.16935822 0.018030213 -0.009736891 -0.15292013 0.13511275 0.028518641 -0.08349127 0.048981823 -0.03148717 0.0029768501 0.034805086 -0.012814586 0.034215912 0.04225729 -0.0025486888 -0.077912174 0.0021168734 0.0017284811 -0.05013533 0.22555266 -0.04754785 -0.089135714 0.105418816 0.08357402 0.15593815 0.079081275 -0.047160007 -0.022657502 0.033648312 0.0077442173 -0.11427434 0.01586068 0.07610138 0.013494231 -0.037155822 -0.03284327 0.039166033 0.030450009 0.061349828 0.07582954 -0.059981328 0.02423189 0.085781164 -0.015367434 0.09020537 0.04851283 -0.1839345 0.022213468 0.019474555 0.017115247 -0.2129702 0.044597503 0.1352884 0.0034054662 -0.010091403 0.13214605 -0.112192184 0.13057639 0.3112581 -0.14553829 -0.06909284 -0.11483182 -0.14900157 0.14250262 0.023577293 0.01607394 -0.059479933 0.045592647 -0.13204119 0.039271917 -0.090160325 -0.14984515 0.06808257 0.036055997 -0.013505219 -0.027902823 -0.06583353 -0.09651705 -0.014474489 0.00081556506 -0.08335138 -0.11800308 0.08199354 0.055119023 0.03873239 0.05991214 0.069036424 -0.034442063 0.24167109 0.077714816 -0.1139245 -0.085496224 0.14727841 0.036861032 0.12075465 -0.095909484 0.06414977 -0.11223627 -0.053342406 0.10794872 0.007954316 0.056314148 0.085744955 -0.026136728 0.012483175 0.018188613 0.09183692 -0.0012276433 -0.11844249 -0.025828056 0.0658355 -0.0625813 -0.01915949 0.07761839 0.017449208 0.064030096 0.11450884 -0.021233333 0.008479753 0.016787753 0.14389941 0.032478817 -0.13799661 -0.12415938 0.060092136 -0.011179064 -0.0015679083 -0.014517456 -0.068268776 -0.015320503 0.0092124175 -0.007166123 0.051134415 0.12427983 -0.066710435 -0.0013068311 0.07788062 0.16216855 -0.020534901 0.14663091 -0.023813155 -0.0006225659 0.009108992 -0.0056657665 -0.02881367 -0.04238229 0.057881612 0.15890972 -0.041260038 0.035506476 0.08150795 0.056883413 -0.09802386 -0.00030308336 0.15833949 -0.014906513 -0.04402582 -0.012890625 0.051269993 0.11846773 -0.048232242 -0.014631545 0.02904657 0.010705153 -0.10528363 -0.0795385 -0.03304296 0.020024413 0.011577765 0.013621366 0.015843177 -0.04430836 0.07172407 0.16944851 0.09137579 0.12861985 -0.015984975 -0.057800077 0.04605319 -0.16169338 -0.019145453 -0.094489746 -0.096981466 0.04213029 -0.09171829 -0.0140157435 -0.03640292 -0.13614613 -0.24297707 0.026747346 -0.0145735685 -0.05985118 -0.17707752 -0.0023432057 -0.011508286 0.024948616 0.08728537 -0.057318415 0.014700515 -0.11180311 0.093901865 0.073873244 0.06649202 -0.049122423 -0.03800065 0.08794469 0.08903551 0.10218495 -0.14832512 0.088112205 -0.024388475 -0.10305282 0.01357552 0.048706435 -0.054136675 0.23156863 -0.05771524 -0.12212384 -0.16241339 -0.1846486 0.18144217 -0.06152649 0.035750628 0.008003054 0.055281103 -0.025888724 -0.13366702 0.0054443106 0.023046654 0.025530398 -0.06782333 -0.047110613 0.07757832 -0.027694669 0.044912048
f -0.033035714 -0.18919742 -0.03276392 0.05071511 0.30300504 -0.13509367 -0.20057286 -0.1337326 -0.039624322 0.13244386 0.12760244 0.13324285 -0.03333867 0.08984937 -0.022107713 0.111745566 0.0048421663 0.061399534 -0.0064822934 0.03184345 -0.0956881 -0.03994863 -0.12139113 -0.085321695 -0.06480727 0.007830164 0.09352455 0.050778337 -0.036318168 -0.08547448 -0.058760665 -0.05602518 -0.14778513 0.0042484514 0.020796087 -0.10046595 -0.111982845 0.09707221 -0.17388296 0.10845969 -0.042189594 0.053955227 0.040336933 0.18746346 -0.08422466 0.0023656024 0.03187851 -0.039125178 -0.16471456 0.027698109 -0.15590347 0.025013216 -0.22031614 0.020100554 0.009408964 -0.1277304 -0.09762831 -0.02027699 -0.10792432 0.04967543 0.08887434 -0.093646064 -0.0073668063 0.017173091 -0.14617415 0.10846533 0.012021145 0.006971815 -0.055457022 0.026577111 -0.04012232 0.01053575 0.018921053 -0.06955842 0.085945554 0.089205004 0.037305612 0.057770245 -0.022764798 0.07625434 -0.083442606 0.057262603 0.015946157 -0.0548605 0.08072374 -0.13754326 -0.14581518 0.10278784 0.11607831 0.12143133 0.0561334 0.017494889 -0.02595041 -0.034434695 -0.041420653 -0.16565825 0.029739674 0.10657902 -0.08542232 -0.097293854 0.111165315 -0.025695404 -0.045598127 0.13680601 0.0141704 0.01331856 -0.035773765 -0.06798382 -0.02911206 0.035093583 -0.05906295 -0.11946429 0.05973468 -0.056289077 0.01792453 -0.13935855 -0.037776414 0.059223406 0.02411914 0.08002908 0.049581952 -0.0033427808 0.113343276 0.23330607 -0.13325927 -0.01968984 -0.088181615 -0.079725064 0.10294187 -0.03196954 -0.07663648 -0.09799424 0.012596452 -0.11101222 -0.013807745 -0.15022826 -0.14841855 0.07119342 0.038710527 -0.075121164 0.021260705 -0.18379691 -0.23560987 -0.08809787 0.2093322 -0.11444245 -0.20072782 0.09873961 0.21432798 0.026024764 0.11163607 -0.017950647 0.08474572 0.2979291 0.11713473 -0.26232833 0.007087721 0.20066595 0.11230532 0.29148817 -0.17464809 0.02017781 -0.17732067 0.02446281 0.1520887 -0.004928472 0.0054523777 -0.028247155 -0.038116213 0.1630858 -0.12517099 0.17914908 0.062219046 -0.113198526 0.07603254 0.11761285 -0.15044779 -0.06344251 0.030829018 -0.051326957 0.07352394 0.14072986 -0.03811297 -0.07236874 0.022368772 0.17701368 0.007340508 -0.016059157 -0.11530111 0.28457692 -0.13968453 0.018384038 -0.09912134 -0.054527823 0.005362057 -0.058873307 0.0104300175 0.082988024 0.120205335 -0.027098818 -0.07050857 0.1166448 0.10997075 -0.13742477 0.07300185 -0.038538482 0.084119 -0.015263766 -0.032602564 -0.030651435 -0.004707695 0.11469174 0.10112292 -0.046035733 -0.0089641 0.0575518 0.032982804 0.026479619 -0.025733635 -0.007437823 0.00425422 0.0135168405 0.059840117 0.07232133 0.118752874 -0.02615347 0.019052446 -0.019883683 -0.0008629401 -0.024390072 -0.13860084 0.026991064 0.057199933 0.0793475 -0.0035163797 -0.015789606 -0.016152497 -0.06315526 0.17739193 0.082692325 0.030347886 0.10313787 0.008352188 0.123158626 -0.055323355 -0.000722527 -0.01440855 -0.23437622 0.031907354 -0.036376417 0.031295035 -0.029683184 -0.051226765 -0.14816363 -0.003211856 0.029763883 -0.013547553 -0.14904445 0.05419344 0.026885008 0.10494256 0.1679271 -0.15685782 0.14139374 -0.058387607 0.099457815 -0.008892289 0.19445504 -0.043305494 -0.076081514 0.17666669 0.06304297 0.18130407 -0.14873268 0.06086958 -0.024972668 -0.21097544 -0.072986715 0.07644195 -0.058863707 0.22420192 -0.13770239 -0.04032948 -0.2568696 -0.17435403 0.17872812 -0.054487288 -0.039951347 0.0046637813 -0.013744088 -0.051544692 -0.07919762 0.11145708 -0.05329807 -0.055221613 -0.12851149 -0.05515993 0.096221335 0.046245463 0.005557411
, 0.020313093 -0.037647273 0.00606636 0.0654828 0.0052582263 0.0013371977 0.023432858 0.018101893 0.061615974 -0.13506489 -0.16068625 0.1677071 0.2180876 -0.039709177 -0.023350427 0.041358892 -0.17536753 0.080418855 0.044168074 -0.021400653 -0.19364959 -0.09255154 -0.07757966 -0.18773279 0.027987622 0.018691633 -0.048569907 0.24131407 0.020569352 -0.0414074 -0.11005982 -0.10453769 0.058148645 -0.11039583 0.065086655 -0.12390693 0.053906605 0.00018606032 -0.24553815 0.16165608 0.08888221 0.06172791 0.060308624 0.043102346 -0.12119041 -0.18317963 -0.09497762 0.17865069 0.016608316 -0.0818469 -0.07576027 0.063792795 0.061014257 0.08566871 -0.16404326 -0.0062692543 0.033583198 0.058021747 -0.10105248 -0.056591798 -0.0058548884 -0.16869423 -0.05107089 -0.1213068 0.07269579 -0.034253094 0.0978878 -0.05328132 -0.115304284 0.03040403 -0.10203188 -0.107418604 0.06482602 -0.15580598 0.050683398 -0.03202216 0.093163505 -0.051797327 -0.07592113 -0.08101749 0.009261771 0.010640284 -0.01118723 -0.036113854 -0.042510062 0.020881154 -0.03697699 0.113564625 0.14713882 -0.010159134 0.009397484 -0.07801834 0.0060104877 0.10564562 -0.08569136 0.09296624 0.099450305 0.004274864 0.056043137 -0.0025854362 0.00080039643 -0.028122036 -0.06781237 0.079627015 0.1931966 0.07782466 -0.08568726 -0.00809891 0.005931183 0.073486306 -0.06262291 -0.027877433 0.02153176 0.062584884 -0.014528646 0.0138108935 0.06247191 0.013426201 -0.0002599502 0.0145053025 0.031315416 -0.029103177 0.13389167 -0.10156354 -0.0026867646 0.07510649 -0.08574535 -0.24755326 0.10893908 0.060453847 0.10381672 -0.08755755 0.10174542 -0.012897422 -0.024270162 0.01882846 -0.15439941 0.15137815 -0.1082214 -0.1944796 -0.004547513 -0.07590089 -0.12318334 -0.03384323 0.007912878 -0.23737316 -0.11741826 0.014471991 -0.07938201 -0.0536588 -0.042285275 0.15871896 -0.08052344 0.040369228 0.07533578 0.017513195 0.031170603 0.15290411 0.045902688 0.16215867 -0.097787745 0.06967381 0.042668305 -0.09157266 -0.021519044 0.0040220562 0.027766526 -0.025759462 0.083237655 -0.037768874 -0.036770865 0.01664337 -0.05014544 -0.08707877 0.07832601 0.07189105 -0.062629774 0.08984909 -0.11789106 -0.08829902 -0.039209716 0.14545648 -0.059197985 0.014216809 0.030775694 0.038315877 0.02572523 0.030916328 -0.05841218 0.1590694 0.02339799 0.112038106 0.05630849 -0.06900153 0.0052258945 -0.067143574 -0.11983541 -0.10021262 0.015450694 -0.21652527 -0.038481824 0.05718072 0.14398521 0.16986051 0.15269311 0.060263894 -0.08566801 -0.11438954 0.006580107 0.0057275705 -0.11678403 -0.07704623 0.01878163 -0.05618673 0.008185364 0.109139115 -0.042912014 -0.011946095 0.021815993 0.13791409 0.012501044 0.06506281 -0.0398474 0.114352785 0.17810516 0.08424961 -0.02405236 -0.008726312 -0.1101311 -0.26382616 -0.08789468 -0.051070902 0.04969565 -0.019227915 -0.046281002 -0.12149925 -0.023238458 0.17013514 0.16863585 0.05085108 0.11964934 0.02971181 -0.1779545 0.028381074 -0.10022844 -0.04263457 0.15559682 0.22953214 -0.043048654 0.035003565 -0.11417463 -0.17314859 -0.03609165 -0.1937435 -0.043796215 0.110268205 0.12950757 -0.029881759 0.019705487 -0.11193913 0.06673954 -0.19351912 -0.12703373 0.02560256 -0.09926973 -0.12650672 -0.056006417 -0.053414624 0.040412653 -0.055815566 0.08379115 0.05027183 0.017865343 0.031589977 0.072924025 -0.15203677 0.0048816074 0.0465325 -0.06848341 0.13339853 -0.00035889202 0.07958217 0.06817296 0.0008024088 -0.039753277 0.15110706 0.1103467 -0.08166096 0.033662643 0.09283336 -0.07910228 0.084776804 0.043392386 -0.042506 -0.04627082 -0.124016084 0.07590063 -0.012213068 0.045171518 0.09026832
v -0.11739988 -0.09448339 -0.062431213 0.08911953 0.14637434 0.10086175 -0.052747816 0.03124966 0.15024243 0.11633891 -0.1231066 0.094813876 -0.030304642 0.06867787 -0.010376868 0.10923686 -0.008172616 0.07566392 -0.0159577 -0.05964896 -0.03959122 -0.009406076 -0.14848955 -0.15766358 0.033264216 0.017649325 -0.0039325114 0.006075653 0.031621773 -0.018463783 -0.002165863 -0.038202837 -0.020541547 -0.040979728 0.03621215 -0.03421113 -0.06790038 0.048907448 -0.12999256 0.111153275 -0.034841355 0.030175636 0.039865978 0.097396605 -0.05591646 0.018808525 -0.011655608 -0.071695685 -0.07594353 0.017424656 -0.10755538 0.008703862 -0.17867517 -0.006080247 0.13022329 -0.077540584 -0.12766741 0.08590562 -0.020832691 0.09531157 -0.012859606 -0.014301514 -0.0230543 -0.032644138 0.015192211 0.12286825 -0.058544535 -0.034817245 -0.098758705 0.042213622 -0.037358332 -0.09164254 0.020311313 -0.0057974076 -0.0073942845 0.009938068 0.1041263 -0.056184962 0.06523124 -0.0030520183 -0.06788159 -0.030204512 -0.044372972 -0.08217415 0.14470683 -0.12586397 -0.09103578 0.0876497 -0.018878076 0.062294934 0.090685256 -0.15138318 -0.033059463 -0.01093997 -0.026950352 -0.1259124 0.047613297 0.12533511 -0.13690855 -0.108203255 -0.0010155557 -0.057342306 -0.06279759 0.06067362 0.05332355 0.071544565 -0.008976502 -0.012869013 -0.061052553 0.032930356 0.025166113 -0.237125 0.12849627 -0.0764166 -0.07803914 -0.13049224 -0.009660112 0.06294932 -0.010917434 0.017243333 0.22303084 0.00047450734 0.05066998 0.123977594 -0.1474392 -0.14707282 -0.06930886 -0.21549614 0.14052206 -0.035247583 0.12452689 -0.17920303 0.10273881 -0.19101673 0.061388828 -0.16378249 -0.27181292 0.21506035 -0.09759096 -0.09652968 0.09116768 -0.2505338 -0.2122886 -0.046371613 0.15235676 -0.16090943 -0.19905217 -0.008062695 0.17862901 -0.13516471 0.13322847 -0.029411282 0.029115368 0.21418132 0.15192695 -0.20813325 -0.03258522 0.2752883 0.09911536 0.33388087 -0.136927 0.09754456 -0.050461493 -0.12768167 0.08590887 0.020643894 0.07252117 0.017658465 0.008227276 0.025147792 -0.06314869 0.12817772 0.028452665 -0.13953999 0.08395355 0.074814394 -0.19361107 0.056665238 0.08231479 -0.081934586 -0.041523185 0.11133766 0.018011292 -0.030625775 0.09753427 0.17545009 -0.028909806 0.018815627 -0.17007053 0.22952193 -0.11095664 0.025976103 -0.073041484 0.055844583 -0.088305354 -0.04561739 0.0048237187 0.06707002 0.15918979 -0.14877357 -0.14223279 0.1072132 0.24627307 -0.06249538 0.15958512 0.031991057 0.12044794 -0.031344138 -0.008964867 0.002110124 -0.02959632 0.057417117 0.20781262 -0.069092415 0.05596665 0.08187703 -0.081008896 -0.078364074 -0.013348106 0.093252905 0.06129479 0.062040187 0.096129775 0.03691866 0.14750926 -0.08554015 0.004909595 0.10367918 0.034601964 -0.054514024 -0.04092185 -0.053708244 0.03608722 -0.046647083 -0.12903863 0.012795845 0.06087103 0.077593125 0.16242826 0.09858876 0.025730759 0.028654642 -0.12290012 0.047742557 -0.08912062 0.012599326 -0.012897197 -0.11312607 -0.007555829 -0.0057011293 -0.07372345 -0.03332068 0.028182404 -0.22397579 -0.06640526 3.3980912e-05 -0.049534533 -0.10093691 0.022455897 0.06829722 0.008744894 0.0876909 -0.08917996 0.0880953 -0.1432289 0.016697109 0.022141948 0.13984308 -0.0021891869 -0.027328154 0.11887948 0.06763307 0.11744837 -0.07117571 0.081276886 -0.03165326 -0.10284109 -0.042169724 0.060994465 -0.055982452 0.04712926 0.00096152094 -0.015199756 -0.16867192 -0.013066106 0.08926614 -0.037795983 -0.054836027 0.1020406 0.057590354 -0.065641485 -0.053570934 0.058043417 -0.034350157 -0.034415778 -0.077017516 0.11324325 0.024809707 0.031800456 0.08707506
k -0.09458996 -0.017095894 -0.14626761 -0.028725233 0.052480932 0.09463309 -0.1290314 -0.022265596 0.22891226 0.01911918 -0.12379415 0.023314588 -0.0030015616 0.02749656 0.0130767375 0.092039324 -0.019816106 0.06684975 0.08083539 0.011099606 -0.19486634 -0.059436742 -0.07489258 -0.14403611 0.10837702 0.010212825 -0.016137075 -0.034687717 0.058261544 -0.19512612 -0.06106673 -0.034987498 0.042977832 -0.12819548 0.124614 -0.037750084 0.05102642 -0.013387763 -0.083749875 0.034707624 -0.124566734 0.08859104 0.08989221 0.0756368 -0.047726355 0.059707344 -0.021899424 -0.17116784 -0.11375093 0.05580109 0.0076220497 -0.05775586 -0.002146326 0.04665353 -0.1541745 -0.01418504 -0.16153064 -0.041789945 0.023644585 0.0819813 0.047237206 -0.17821904 -0.16282305 -0.11876559 0.008172664 0.034691457 -0.054409128 0.11331047 -0.20001918 0.018999303 0.041932143 -0.10452344 0.08258792 0.00011893913 0.087561175 0.17101724 -0.061108243 -0.11354685 0.08464117 -0.15017597 0.012616567 -0.07203375 -0.008320112 -0.113091104 0.14571065 0.02263212 -0.10497967 0.08755604 0.08901197 0.029313693 -0.018588752 -0.027874857 -0.13380934 0.06635913 0.02864364 0.017125992 0.0152007295 0.006901869 -0.037078634 0.09936585 -0.06693477 -0.039333455 0.004777434 -0.03077359 0.091599464 0.074578665 -0.0564132 0.20779005 -0.058295004 0.1380175 -0.003016365 -0.105724484 0.12848596 -0.0029492634 0.0073832083 -0.12975042 0.09326757 0.09117252 -0.011206533 -0.05037179 0.08880515 0.03258464 0.09204394 0.11912341 -0.10914984 -0.07431476 -0.0328729 -0.12733564 0.008477302 -0.05582665 0.14711879 -0.12260723 0.07344077 -0.08262593 0.023731597 -0.07443588 -0.2490371 0.11743932 -0.038930222 -0.0076294276 0.066184714 -0.07429766 -0.12678608 0.0036717437 0.025869299 -0.07568988 -0.07682629 0.060809884 0.07330776 -0.026806844 0.021550367 -0.0022105805 -0.043015994 0.03721679 0.15964577 -0.1180429 0.018788902 0.21039052 0.12534173 0.14535472 -0.100469515 0.008273872 0.012623788 -0.1305952 -0.014601229 0.027422061 -0.033285562 -0.08066698 0.04360045 -0.10567864 0.07372773 -0.004578885 -0.092943855 -0.05902128 -0.049935557 0.17868324 0.06561337 0.17157958 -0.02387155 -0.052239593 -0.09680883 0.2171143 0.12133188 0.006769257 0.07907343 0.022072516 -0.0024928134 -0.15339874 -0.08737354 0.17005822 0.049927156 0.13521962 -0.030336792 0.03510831 -0.014186073 0.052011363 -0.006591227 0.06813056 0.19416992 -0.20275785 -0.09471306 0.06826147 0.14040902 0.06405203 0.21424097 -0.031007046 -0.00043546536 -0.108462185 0.02088769 0.07272414 0.053945616 0.10764406 0.14091028 -0.09596805 4.678394e-05 0.011419934 -0.089878 -0.13835394 -0.012183781 0.11705611 0.07402981 -0.077744424 0.0055913385 0.042003214 0.1340161 -0.005389481 -0.041156206 0.21962021 0.021557286 -0.07909001 0.009126053 -0.05733452 0.0023011945 -0.020962117 -0.01749222 -0.006781935 -0.04846734 0.11381227 0.1521745 0.08012198 0.12129741 -0.046721585 -0.1711461 0.009168772 -0.11547893 0.0507442 0.10943992 -0.059202734 -0.029766884 -0.09768561 0.04317058 -0.15425923 -0.025416953 -0.17351034 -0.09311603 0.09732388 -0.07660717 -0.114443004 -0.008902101 0.0093501555 0.044781975 0.048136108 -0.029758573 -0.012847384 -0.14737009 0.029568207 0.03377175 -0.007967034 -0.17903796 -0.081101805 -0.04872337 0.062213965 -0.088365085 -0.2305151 0.066100135 -0.0287164 -0.16175812 -0.027832089 0.12566528 0.07884589 0.13787548 -0.028342806 -0.031960987 -0.10170758 -0.15098067 0.20193516 -0.042832658 0.02656452 0.097666085 0.05061658 -0.06041787 -0.12319664 0.021315187 0.018532012 0.033656776 -0.15014105 -0.020026514 0.06611723 0.07763026 0.053722106
w -0.16728812 -0.0602086 -0.072998315 -0.14591031 0.14491016 0.20202908 -0.15424836 -0.064034775 0.2278029 0.055789575 -0.049852334 0.08673018 0.07496001 0.15506434 -0.015612932 0.11010135 -0.03192773 -0.043299634 0.11937279 0.058654293 -0.14752755 -0.06822112 -0.10261265 -0.033127002 -0.057482503 -0.01620114 0.034671813 -0.085659556 0.11831501 -0.091438055 -0.10432288 0.055795982 -0.09594576 -0.1936022 0.13017409 -0.06997414 -0.014959197 0.021036591 -0.17091516 -0.018740118 -0.02428902 0.0455861 0.08873512 0.13730314 -0.039346118 -0.03814123 0.050921764 -0.0798166 -0.07001539 0.10436064 -0.016090125 -0.10784034 -0.15126128 -0.021936847 -0.010535909 0.018976051 -0.18547046 -0.05839863 0.05749143 0.13422015 -0.0073409146 -0.15047418 -0.10516884 -0.12031397 0.009188873 0.18404736 0.09842343 0.19702418 -0.29719868 0.11446465 0.04092528 -0.14027362 0.061781604 -0.13910428 -0.0011395031 0.09663614 -0.0051378943 -0.07806737 0.101669006 -0.10321111 -0.019229576 -0.10780496 -0.013249199 -0.2573466 0.27149358 -0.059740283 0.025655694 0.0557675 0.049306978 0.12460861 0.13865708 -0.08700155 -0.1377112 0.07416218 -0.09691199 0.0005812251 0.0038890627 0.005200742 -0.049590632 0.014407151 0.040058825 -0.0038494745 -0.0663738 0.018447395 0.032046575 0.014603752 -0.04359703 0.14266263 -0.15701912 0.15672056 0.11887434 -0.3230149 0.09170658 -0.08143526 -0.0012381943 -0.2526421 0.08638483 0.02666874 0.024507126 0.034150414 0.14659289 -0.10665508 0.15210496 0.19482699 -0.14062998 -0.18063696 -0.16216956 -0.20941566 0.12518184 -0.03309663 0.2015073 -0.19765428 0.09065164 -0.14306523 0.14583248 -0.0580693 -0.28452724 0.15865478 0.099579036 -0.07490665 0.012918017 -0.14871751 -0.10431803 -0.11117974 0.065639004 -0.14488815 -0.18018995 0.09826184 0.11092112 0.03440332 0.11623113 0.017873539 -0.05704134 0.24361236 0.2074087 -0.23637576 0.0066049746 0.3354156 0.09399112 0.30302194 -0.04527451 -0.0615417 -0.13343038 -0.13388668 0.060222343 0.07046281 -0.076344624 -0.058352713 0.0058457353 -0.058465306 0.10962798 0.10429658 -0.10943305 -0.018895505 -0.09243781 0.19478808 -0.023305416 0.09618573 -0.014540768 -0.045812886 -0.023007216 0.15808676 0.09460352 -0.019118065 0.07856934 0.21384129 0.089278415 -0.1942724 -0.09643428 0.17524636 0.02382587 0.13198021 -0.08750872 0.026100185 -0.08641087 0.055161014 -0.08011609 0.073922835 0.15887216 -0.1708128 -0.05640181 0.06950914 0.14179511 -0.044524305 0.08652375 -0.055576846 -0.014440616 -0.057327628 -0.018912675 0.0020480403 -0.0035111464 -0.018231584 0.03843592 -0.08817065 0.048179086 0.020458713 -0.07002074 -0.03367045 -0.00046188815 0.13952644 0.015975656 -0.06805358 -0.049321376 0.045763053 0.11883006 0.011220227 -0.04255236 0.22115143 0.0887383 0.012085535 -0.06193365 0.049211998 0.06279923 -0.010304547 -0.11327658 -0.010434795 0.04351912 0.066257484 0.17686655 0.09469965 0.12657471 -0.018306905 -0.0912037 0.06306659 -0.1517026 0.08797167 0.07848073 -0.056363706 -0.0034552708 -0.083972 -0.0076223584 -0.065207 0.05445152 -0.20788254 -0.03117927 -0.04979633 -0.094862506 -0.05952165 0.062021 -0.030238146 0.020781023 0.0038214861 0.01581934 0.019750996 -0.06144861 0.017152328 0.09071971 0.04034767 -0.13379695 -0.027728813 0.045024455 0.0659297 0.032703485 -0.11612189 0.09284757 -0.006735931 -0.09315048 0.09035735 0.08268524 0.038017232 0.07621144 -0.011668569 -0.021021144 -0.08934385 0.10316065 0.07333043 -0.041819252 -0.07537112 0.035559945 0.030491699 -0.0406689 -0.050030094 -0.024003223 -0.08190737 -0.0473428 -0.103854 -0.044208754 0.09859647 0.042851783 -0.046945862
" -0.23533678 0.06657159 0.058917496 -0.042695723 0.09514866 0.19738038 -0.2733772 -0.14885545 0.16201627 0.11123866 0.031648275 -0.10240275 -0.037609022 0.03358929 -0.008932526 0.25984806 -0.13415863 0.011347425 -0.06282226 -0.1175407 -0.16428082 -0.031208461 -0.20416524 -0.012512692 -0.055829465 0.14197452 0.024640616 -0.08320362 0.10178794 -0.062215824 -0.17442338 -0.13295215 -0.13671844 0.037383247 0.22637369 0.040926162 -0.1643816 0.06302288 -0.3429688 0.029281164 -0.039081655 0.050911356 0.18009919 0.13614714 -0.18880643 0.041925646 0.14880599 -0.034528304 -0.16908704 0.045249697 -0.004814009 0.056738216 -0.20231465 0.17183617 0.06689831 -0.121406935 -0.11846705 -0.07207708 -0.09199097 0.1560095 0.030163238 -0.042495817 -0.114507616 -0.10945128 0.010266133 0.29380417 0.14766936 0.13479355 -0.13348916 0.033789475 0.04036284 -0.10268408 0.012694772 0.05262058 -0.033649318 0.094201595 -0.15011673 -0.10254619 0.10243133 -0.009415558 0.12391275 -0.14540549 0.009838224 -0.16433667 0.22246137 -0.09159548 0.011600006 0.01878485 0.02008048 0.11119433 0.044935953 -0.1491164 -0.12064499 0.19568679 -0.13132448 -0.0673103 0.18957473 -0.15560919 -0.13629073 0.044146758 -0.0048035495 -0.076998785 -0.07645409 -0.10598484 -0.013491057 -0.14564255 -0.03804939 0.097174026 -0.063993126 0.13422184 0.038245685 -0.24993621 -0.01805094 0.023948692 0.058154285 -0.19314148 -0.005489896 -0.046294827 0.05132039 0.10992788 0.16667709 -0.099185534 0.08364753 0.10016323 -0.24452356 -0.020090481 -0.1350076 -0.18371364 0.20529616 -0.035964824 0.15798363 -0.16004756 -0.053864963 -0.15453655 0.12913673 0.035507627 -0.05195184 0.07825078 0.017892573 -0.095871344 0.13618314 -0.17514175 0.02868387 -0.13186936 0.018109554 -0.048540656 -0.021433987 0.2442618 0.19447902 -0.08825144 0.06122115 0.09730061 0.08448704 0.07119128 0.16717194 -0.006904255 0.11103212 0.16003487 0.08105947 0.12400785 -0.041458976 -0.11594676 -0.03738063 -0.14997338 0.06893532 -0.11249114 -0.12737557 0.037336156 -0.002226736 -0.034110285 -0.04793312 -0.048858944 -0.076614864 -0.17185022 -0.012389704 0.13835628 0.004509047 -0.0046146004 -0.008415681 -0.15239607 -0.055322785 -0.007057559 -0.0026755896 -0.079441555 0.029423244 0.09425198 -0.01775583 -0.033724662 0.002116836 0.14633413 -0.107460186 0.07662608 -0.06324096 0.07849738 -0.029488405 0.13348274 -0.1238744 0.15919606 0.22277245 0.0068454663 -0.0376306 0.030168246 0.104386166 -0.049956553 0.10389176 -0.14197195 -0.08393895 -0.16124518 -0.03055421 0.06207444 -0.058041364 -0.07253023 0.17850085 -0.045680635 -0.0040420736 -0.049270265 0.029875953 -0.16108881 -0.04165318 0.25131145 0.002609134 0.07476125 -0.06036074 0.06283588 0.23112892 -0.010627169 0.04808684 0.23162901 0.006993123 -0.029488418 -0.1626257 0.096997954 0.09239905 -0.027600467 -0.17261644 -0.035784654 0.03796934 -0.10893622 0.089450456 0.15098669 0.07075406 -0.09556988 0.051115688 0.041710358 -0.10183638 0.07035497 0.14119259 -0.08533105 0.038425475 0.023961075 -0.17205425 -0.05272714 0.04716429 -0.17413628 0.00540884 -0.111980624 0.013221582 -0.22100937 0.008472386 0.09825118 0.066741124 0.06460549 -0.08559302 0.047863144 -0.03313281 0.04760155 -0.012058471 0.10453656 -0.12114532 0.044583768 0.17031524 0.16306385 0.106594995 -0.11798406 0.09845665 0.107199736 -0.013982833 -0.087315135 -0.107649125 -0.06390188 0.13226609 -0.06551588 -0.0921861 -0.042602513 0.025696749 0.16700168 -0.14783742 -0.08362283 -0.10304559 0.064313956 -0.012407264 -0.08541555 0.09631745 -0.08601369 -0.04661702 0.053899042 -0.0127415685 0.17609917 0.011087566 0.0066429707
0 -0.110075235 -0.00084614864 -0.04365275 0.02865082 -0.07866572 0.20781958 0.045489613 0.17616011 0.11188635 -0.036139328 -0.19476187 0.08856589 0.2589478 -0.20925102 -0.06253767 0.008403483 -0.04929625 -0.07224253 0.15714507 0.14086367 -0.08369465 0.009201325 0.041762598 -0.1238749 0.054675426 0.16282567 -0.120526314 -0.12607765 0.011094038 0.00970243 -0.03856942 -0.13269024 0.24357237 0.031208957 -0.030237673 -0.08005814 0.037360977 0.11947113 -0.038491003 0.14468831 0.07093192 -0.02708528 -0.07189684 0.015293585 -0.022046274 -0.01678435 -0.029743375 -0.018732503 0.04651858 0.15153584 -0.06750222 0.12388561 0.18419947 0.15122454 -0.2946111 2.2849157e-05 0.018053986 0.13095652 0.16370147 -0.08779935 -0.043331414 -0.072331965 -0.05560106 0.012586431 0.07356702 0.019872492 0.010171093 0.075669 0.09109401 0.2121012 0.37645414 -0.123176984 -0.044181075 -0.0317557 0.0649082 -0.047036633 -0.117069766 -0.053137608 -0.08385824 -0.21064855 -0.074505694 -0.01964434 -0.1650373 -0.15817112 -0.0057654837 0.07240565 0.27843294 -0.017472858 0.12283234 -0.01624237 -0.05379993 0.029205918 0.0047371057 0.038389362 0.1696535 0.2029483 -0.25421673 0.052889407 0.09062551 0.06413229 -0.064062096 0.19662583 -0.027946435 0.094926946 0.0061662826 -0.075599134 -0.14198974 0.04426073 -0.103724085 0.029893557 0.25121245 0.04475116 0.025887381 -0.18247372 -0.076831765 -0.13187833 0.24807626 0.014695715 0.009166719 -0.013708046 0.0850655 -0.13621707 0.23470943 0.015057693 -0.007793538 0.0073933597 -0.03797898 -0.10659963 -0.05870812 -0.052966278 0.32257625 0.0999669 -0.051000576 0.042130455 0.026373098 0.06911264 -0.14114739 0.0907969 -0.25851107 -0.2920919 0.28123027 -0.19750647 -0.12562987 0.03185148 0.030792747 -0.23933034 -0.050791398 -0.19628853 -0.0076010292 -0.12299417 0.0024414568 -0.08170788 0.027660396 0.06578054 0.115165055 -0.06615845 0.14247535 0.24039534 0.11104898 0.19034107 0.14315918 0.21083848 -0.070229016 -0.11899799 0.18971582 -0.15104632 0.1487736 -0.1272948 0.22152567 -0.04712368 -0.09121885 0.07896526 -0.13954604 0.104459144 0.17599311 0.21470748 0.054865267 0.2300597 -0.14011654 -0.12803805 -0.008356251 0.23211423 0.17300323 -0.13971995 0.08134888 0.11240837 0.009995036 -0.08504644 -0.05720459 0.20553425 0.20639153 0.08033649 -0.15208817 0.18198843 -0.054427285 -0.18937896 0.25105375 -0.07406087 0.119305536 -0.10481571 0.19339113 0.07279847 0.10450529 0.2062644 0.41016924 -0.14849551 -0.15315007 -0.05377767 0.002630958 0.18746132 -0.099652715 -0.18126939 0.07940401 0.08510295 -0.16093992 0.18594556 0.18130423 -0.027949309 0.032958943 -0.110344365 0.10687411 -0.21974218 0.094811715 0.13163716 0.22723615 -0.050909773 0.1129053 0.16542335 -0.112955704 -0.3282861 -0.034941126 -0.017099772 0.059120007 0.1964574 0.13526481 -0.22660257 -0.34391224 0.24335799 0.054938205 0.0036961006 0.17979422 0.050082695 -0.0698415 -0.20888203 -0.041554146 -0.19318108 0.18936017 0.17639512 -0.012879662 0.17972521 0.24124756 -0.24415658 0.1323599 -0.012494857 0.12226345 0.08560937 0.1258716 -0.0024191802 0.11931145 0.027798142 0.014340562 -0.08314872 -0.04542049 0.1446747 -0.07226683 0.236339 -0.11697989 -0.045238383 0.08526778 0.054606147 -0.29172346 0.090080135 -0.16074194 -0.13455671 -0.031969912 -0.17773288 -0.14298023 -0.091611885 0.08109561 0.14146778 0.046310093 0.052445766 0.23034646 0.28535157 -0.059426114 0.08485357 -0.10755826 -0.021493014 0.3241543 0.1547242 -0.09693463 -0.05448228 0.10426306 -0.12083965 0.012513083 -0.21869206 -0.1080529 0.04184776 0.061349176 0.046554867
' 0.040310692 -0.027187986 0.02064837 -0.016151104 0.106644966 0.1006795 -0.21610202 0.067392506 0.35260883 0.18191242 -0.21574426 0.32978055 0.1687616 0.04469921 -0.07125549 0.09139219 0.007790353 0.11212925 0.025307514 0.14231703 -0.23823322 -0.081188336 0.06201416 -0.10414789 0.05893246 -0.14535424 0.14330132 0.026676666 -0.016701894 -0.25722125 -0.100701086 -0.03670777 0.16287525 -0.106070824 0.13165112 -0.2239723 0.12421181 0.011057291 -0.12775761 0.18088031 -0.09495104 0.12594755 0.091175176 0.07836327 -0.1633292 0.046522453 0.025284236 -0.16093044 -0.18370907 0.04643261 -0.2208774 -0.11084737 0.09779965 0.07453758 -0.2991489 0.041721333 -0.09615843 0.03375614 0.075979196 0.009260448 0.16069297 -0.15025629 0.049658317 -0.10762144 -0.09323818 0.10604014 0.018198282 0.13913712 -0.28758818 0.011461808 -0.040179994 -0.061356988 0.119368576 -0.2545135 0.0490858 -0.10307736 0.092041485 0.007899378 0.117427856 -0.15284827 0.04798455 -0.047091242 -0.08687712 -0.15549359 0.07908066 -0.07461949 -0.04185689 0.022013122 -0.0059245504 -0.012330347 -0.032393217 0.011782038 -0.015138106 0.07441534 -0.031811178 0.024368532 0.0061697783 0.13531585 -0.09800328 -0.04042837 -0.046588577 -0.024343826 -0.105061196 0.15475051 0.069074 0.15764286 0.018234173 0.06509158 -0.05425791 0.119395524 0.016130818 0.03562456 0.09246835 -0.02724921 -0.0007690478 -0.23543909 0.02031046 -0.029456561 0.091128066 0.006950833 0.060181648 0.088182114 -0.00079710933 -0.090926655 -0.12189185 -0.1413183 0.0014107296 -0.054965004 -0.14695422 -0.09236211 0.15898357 -0.079987384 0.009922177 -0.12599051 0.026377 -0.12384549 -0.24449979 0.35636044 -0.0005564138 -0.03279364 0.070526086 0.06638115 -0.23765427 0.10960824 -0.058504794 -0.124169774 -0.11765172 -0.08281668 0.027387703 -0.1386891 0.15997712 0.041762542 0.03758468 0.02141708 0.16980955 -0.2328761 -0.053633865 0.2811005 0.16392928 0.22558919 -0.12099143 0.17849512 -0.09183847 -0.07376069 -0.049309947 0.21089137 0.037618335 -0.108847074 0.10387852 -0.08647142 0.09911885 0.11973151 -0.029296536 -0.0015841186 -0.09414923 0.20171429 -0.014494571 0.19513658 -0.049030464 0.039738454 -0.06461294 0.13562793 0.15186098 -0.025633043 0.09972026 0.14744365 0.116382346 -0.026874647 -0.09526403 0.12337504 0.06776994 0.12876743 -0.036266495 0.06208427 0.10277672 0.07484354 0.10459936 0.05365758 0.058555193 -0.39986953 -0.121428505 -0.027133059 0.14737117 0.09830639 0.07096855 -0.0428653 0.009844054 -0.053631533 0.050501306 0.13303867 0.19203913 0.11084867 -0.052637912 -0.04331512 -0.09461836 -0.034481823 -0.07960457 -0.032595795 0.059504885 0.004552473 -0.024688682 -0.09518066 0.040329263 -0.06387099 -0.0616448 0.029883139 -0.06607114 0.2213883 0.072359644 -0.011436636 0.030670032 -0.19775414 0.03713494 -0.1304887 -0.16336417 -0.003969981 -0.087009214 0.14626394 0.11427364 0.070779435 0.20439923 -0.06789415 -0.25578156 0.003284773 -0.12912928 -0.08507887 0.0984004 0.039864 0.029422859 -0.19673596 0.15922001 -0.23269854 -0.09277029 -0.18519506 -0.05252937 0.026449922 -0.10192548 -0.13912039 -0.058283858 -0.042638455 0.019263107 0.031848848 0.14943647 -0.0013009832 -0.029025948 -0.10965316 -0.010723104 0.032537334 -0.05361124 -0.18539819 -0.120844394 -0.06259931 -0.09516476 -0.108814515 0.08192434 -0.053197317 -0.16950709 0.177987 0.10144631 0.18221354 0.033918563 0.12688051 0.034190927 -0.01004598 -0.12229566 0.026259907 0.10968023 -0.06743909 0.16943125 0.15856089 -0.16100666 -0.030592136 -0.03899283 -0.016025819 0.10995125 -0.029041978 0.011444464 0.052926563 0.025499 0.06858307
1 -0.03592661 0.08279948 0.06756698 -0.0051788767 -0.05388476 0.1127645 0.019937629 0.121344976 0.087705955 -0.04347724 -0.14169474 0.04827128 0.16103844 -0.12202323 -0.0075287 0.03398631 -0.06802985 -0.038431033 0.05842003 0.066336215 -0.031467382 -0.058452383 0.06418438 -0.064747 0.025256163 0.07852008 -0.06479226 -0.07490459 0.03071791 0.040830843 -0.03498608 -0.08763713 0.15810782 -0.019235605 0.0058222855 -0.047590114 -0.019749569 -0.020797947 -0.07658688 0.07664538 0.070488326 -0.01859838 0.03900476 0.090319335 -0.0027393107 0.057848185 -0.027845385 0.04935181 -0.027684467 0.06491689 -0.03249531 0.104032554 0.14734894 0.13326968 -0.24165057 0.004426116 0.06655364 0.08135828 -0.012537798 -0.09430373 0.06445813 -0.07691316 0.011802412 -0.013794315 0.051885825 0.08438268 0.09829092 0.08568062 0.04311159 0.17824526 0.29728898 -0.02674985 -0.085007995 -0.014683441 0.015177089 -0.019856293 -0.173106 -0.009335417 -0.12639637 -0.11986878 -0.044004228 -0.046556886 -0.19496717 -0.08991574 0.122535326 0.10803353 0.22533712 0.03260569 0.13417952 -0.04817504 -0.072508 0.08321473 -0.09017186 0.07136152 0.031132868 0.17044711 -0.100302994 -0.02204116 0.06880117 0.021127407 -0.13036881 0.22071157 -0.0030140348 0.03991265 -0.020033522 -0.1418992 -0.060994633 0.015637573 -0.06451115 -0.053728495 0.14207251 0.15601861 -0.105271995 -0.10474945 0.10801956 -0.07624473 0.2158235 -0.028876025 0.036385626 0.06717737 -0.027916545 -0.13474293 0.12897375 0.023688173 0.0013765688 0.015705079 0.0020951247 -0.09253191 -0.00084879453 -0.0061161118 0.23275577 0.08274953 -0.07665632 0.10236731 0.019832924 -0.064020246 -0.0019405439 0.03386037 -0.1669924 -0.26929507 0.20547904 -0.027767038 -0.21581104 -0.028224513 0.032217104 -0.07599278 -0.13558324 -0.09484542 0.049516566 -0.15056865 -0.09300488 -0.095159315 0.083830744 0.08111964 0.12354637 0.027478252 0.11715908 0.09175854 0.15247062 -0.020363646 0.05580279 0.12868881 -0.08731741 -0.01855156 0.1620661 -0.14428723 0.08875124 -0.09697006 0.20146038 0.065349706 -0.103022605 0.063229255 -0.013508798 0.10282572 0.18901134 0.1740897 -0.011750629 0.0604855 -0.037960704 -0.06893335 0.04584319 0.16033879 0.123867266 -0.12992871 0.04358603 -0.018358804 0.0545271 0.03803278 0.009317259 0.08511812 -0.025730884 -0.044664867 -0.060183555 0.08599225 -0.05939677 -0.16464137 0.16569437 -0.06681578 0.055394754 0.020131145 0.11031082 0.012992029 -0.038740776 0.13191591 0.25228104 -0.055434097 -0.20105071 0.004423573 -0.10944194 0.11828691 -0.10387089 -0.03219126 0.1069026 0.028576337 -0.18460955 0.10254283 0.18370245 0.0073608602 0.033944234 -0.10527202 0.09586481 -0.08784956 0.03819292 0.09214979 0.18591471 -0.036070216 0.114909306 0.08017896 -0.08443215 -0.142848 -0.00070917996 -0.02772269 0.0658973 0.10204222 0.122935966 -0.08545859 -0.2487212 0.09002168 -0.0826058 -0.11445025 0.10272473 0.091388635 0.03990877 -0.0449523 -0.03539266 -0.10304303 0.10710146 0.15212348 0.099696584 0.12670054 0.08241237 -0.17768247 0.091453746 0.07134941 0.036157753 0.03609921 0.15048337 0.045290686 -0.06582234 -0.018859304 0.0597338 -0.004164957 -0.03161566 0.045533895 -0.061317354 0.20670076 -0.12251308 0.018468445 0.0013695229 0.05119171 -0.15759474 0.03548152 -0.07520962 -0.113837555 -0.07745182 -0.08864699 -0.06680257 -0.06548344 0.035380688 -0.008343088 0.04202291 -0.10416518 0.13736615 0.16426043 -0.17238477 0.05707078 -0.07758373 0.030819228 0.20472819 0.017418185 -0.029620828 -0.034041665 0.053130522 -0.042431746 -0.030377526 -0.13518438 -0.11439365 0.077680394 0.116974376 0.015827041
